{"learner":{"attributes":{"best_iteration":"48","best_score":"0.8426579708047212","scikit_learn":"{\"_estimator_type\": \"classifier\"}"},"feature_names":["Temperature","Time","Catalyst","Stirring"],"feature_types":["float","float","float","float"],"gradient_booster":{"model":{"cats":{"enc":[],"feature_segments":[],"sorted_idx":[]},"gbtree_model_param":{"num_parallel_tree":"1","num_trees":"237"},"iteration_indptr":[0,3,6,9,12,15,18,21,24,27,30,33,36,39,42,45,48,51,54,57,60,63,66,69,72,75,78,81,84,87,90,93,96,99,102,105,108,111,114,117,120,123,126,129,132,135,138,141,144,147,150,153,156,159,162,165,168,171,174,177,180,183,186,189,192,195,198,201,204,207,210,213,216,219,222,225,228,231,234,237],"tree_info":[0,1,2,0,1,2,0,1,2,0,1,2,0,1,2,0,1,2,0,1,2,0,1,2,0,1,2,0,1,2,0,1,2,0,1,2,0,1,2,0,1,2,0,1,2,0,1,2,0,1,2,0,1,2,0,1,2,0,1,2,0,1,2,0,1,2,0,1,2,0,1,2,0,1,2,0,1,2,0,1,2,0,1,2,0,1,2,0,1,2,0,1,2,0,1,2,0,1,2,0,1,2,0,1,2,0,1,2,0,1,2,0,1,2,0,1,2,0,1,2,0,1,2,0,1,2,0,1,2,0,1,2,0,1,2,0,1,2,0,1,2,0,1,2,0,1,2,0,1,2,0,1,2,0,1,2,0,1,2,0,1,2,0,1,2,0,1,2,0,1,2,0,1,2,0,1,2,0,1,2,0,1,2,0,1,2,0,1,2,0,1,2,0,1,2,0,1,2,0,1,2,0,1,2,0,1,2,0,1,2,0,1,2,0,1,2,0,1,2,0,1,2,0,1,2,0,1,2,0,1,2,0,1,2,0,1,2],"trees":[{"base_weights":[-4.52407E-3,2.6982784E-1,-2.4976437E-1,5.5578333E-1,-3.8262717E-2,-9.7958036E-2,-4.1616637E-1,8.5594004E-1,4.379161E-1,1.337351E-1,-4.726568E-1,4.7091097E-1,-1.6052842E-1,-1.995655E-1,-5.346466E-1,9.785733E-1,3.9405584E-1,5.8406025E-1,1.3956514E-1,2.5959805E-1,-8.4863134E-2,-5.584941E-1,1.6426542E-1,2.9302773E-1,9.626346E-2,3.314493E-1,-1.9828752E-1,1.330093E-1,-4.519882E-1,-1.5600602E-1,-5.6390995E-1,5.1482268E-2,1.0403788E-1,-5.1611062E-2,8.603635E-2,4.8204027E-2,1.0722633E-1,5.2468088E-2,-1.4217577E-3,1.7920423E-2,6.9164686E-2,3.9614297E-2,-2.3608696E-2,-6.2036496E-2,-1.4457601E-2,4.3041434E-2,-1.185244E-2,7.2670445E-2,8.451131E-3,8.593964E-2,1.0063904E-2,-1.44641865E-2,-5.986273E-2,-5.442964E-2,2.8746104E-2,-5.9261317E-3,-5.439484E-2,-5.6639045E-2,4.1600067E-2,-5.760255E-2,1.4323168E-4],"categories":[],"categories_nodes":[],"categories_segments":[],"categories_sizes":[],"default_left":[0,0,0,0,0,0,0,0,0,0,0,0,0,0,0,0,0,0,0,0,0,0,0,0,0,0,0,0,0,0,0,0,0,0,0,0,0,0,0,0,0,0,0,0,0,0,0,0,0,0,0,0,0,0,0,0,0,0,0,0,0],"id":0,"left_children":[1,3,5,7,9,11,13,15,17,19,21,23,25,27,29,31,33,35,37,39,41,43,45,47,-1,49,51,53,55,57,59,-1,-1,-1,-1,-1,-1,-1,-1,-1,-1,-1,-1,-1,-1,-1,-1,-1,-1,-1,-1,-1,-1,-1,-1,-1,-1,-1,-1,-1,-1],"loss_changes":[2.879364E1,1.7817162E1,5.667077E0,3.333767E0,7.397988E0,4.3279767E0,2.6517563E0,1.2292271E0,3.2896547E0,1.9783605E0,1.6261406E0,7.75645E-1,2.078972E0,3.3846755E0,6.753044E-1,9.077072E-2,3.6931715E0,2.0522327E0,1.5907935E0,1.4519379E0,2.0381877E0,5.4951763E-1,3.6004192E-1,8.716016E-1,0E0,9.00444E-1,2.0884702E0,2.02488E0,7.8907204E-1,1.7202251E0,4.3618965E-1,0E0,0E0,0E0,0E0,0E0,0E0,0E0,0E0,0E0,0E0,0E0,0E0,0E0,0E0,0E0,0E0,0E0,0E0,0E0,0E0,0E0,0E0,0E0,0E0,0E0,0E0,0E0,0E0,0E0,0E0],"parents":[2147483647,0,0,1,1,2,2,3,3,4,4,5,5,6,6,7,7,8,8,9,9,10,10,11,11,12,12,13,13,14,14,15,15,16,16,17,17,18,18,19,19,20,20,21,21,22,22,23,23,25,25,26,26,27,27,28,28,29,29,30,30],"right_children":[2,4,6,8,10,12,14,16,18,20,22,24,26,28,30,32,34,36,38,40,42,44,46,48,-1,50,52,54,56,58,60,-1,-1,-1,-1,-1,-1,-1,-1,-1,-1,-1,-1,-1,-1,-1,-1,-1,-1,-1,-1,-1,-1,-1,-1,-1,-1,-1,-1,-1,-1],"split_conditions":[2.841433E0,2.9826157E2,3.0067966E2,1.5240585E2,7.3931634E-1,1.7870185E-1,3.585835E0,7.0234144E-1,2.3361998E0,2.180163E0,2.6933405E0,1.574151E-1,3.042323E0,5.845268E-1,1.7135225E-1,1.2506129E0,1.2161905E2,2.837384E2,1.8248108E2,2.075414E0,2.2431277E-1,9.606627E-1,2.7310674E0,3.1767948E0,9.626346E-2,1.2679644E2,8.902302E-1,3.0097091E0,2.9513373E0,1.574151E-1,9.7003555E-1,5.1482268E-2,1.0403788E-1,-5.1611062E-2,8.603635E-2,4.8204027E-2,1.0722633E-1,5.2468088E-2,-1.4217577E-3,1.7920423E-2,6.9164686E-2,3.9614297E-2,-2.3608696E-2,-6.2036496E-2,-1.4457601E-2,4.3041434E-2,-1.185244E-2,7.2670445E-2,8.451131E-3,8.593964E-2,1.0063904E-2,-1.44641865E-2,-5.986273E-2,-5.442964E-2,2.8746104E-2,-5.9261317E-3,-5.439484E-2,-5.6639045E-2,4.1600067E-2,-5.760255E-2,1.4323168E-4],"split_indices":[1,3,3,3,2,2,1,2,1,1,1,2,1,2,2,1,3,3,3,1,2,2,1,1,0,3,2,1,1,2,2,0,0,0,0,0,0,0,0,0,0,0,0,0,0,0,0,0,0,0,0,0,0,0,0,0,0,0,0,0,0],"split_type":[0,0,0,0,0,0,0,0,0,0,0,0,0,0,0,0,0,0,0,0,0,0,0,0,0,0,0,0,0,0,0,0,0,0,0,0,0,0,0,0,0,0,0,0,0,0,0,0,0,0,0,0,0,0,0,0,0,0,0,0,0],"sum_hessian":[4.25952E2,2.009961E2,2.2495589E2,1.038258E2,9.7170296E1,1.18467896E2,1.06488E2,2.75094E1,7.63164E1,7.01046E1,2.7065699E1,1.10925E1,1.073754E2,3.86019E1,6.78861E1,2.0853899E1,6.6555E0,5.05818E1,2.57346E1,4.437E1,2.57346E1,2.3959799E1,3.1058998E0,9.317699E0,1.7748E0,7.0992E0,1.002762E2,1.68606E1,2.1741299E1,5.3244E0,6.25617E1,3.5496E0,1.73043E1,2.2185E0,4.437E0,4.3482597E1,7.0992E0,6.6555E0,1.90791E1,3.86019E1,5.7681E0,5.7681E0,1.99665E1,2.04102E1,3.5496E0,1.3311E0,1.7748E0,2.2185E0,7.0992E0,1.3311E0,5.7681E0,8.9627396E1,1.06488E1,2.6622E0,1.41984E1,4.437E0,1.73043E1,3.1058998E0,2.2185E0,6.12306E1,1.3311E0],"tree_param":{"num_deleted":"0","num_feature":"4","num_nodes":"61","size_leaf_vector":"1"}},{"base_weights":[2.4249652E-2,8.196178E-2,-2.1705978E-1,-6.1383776E-2,2.7119532E-1,-5.13852E-1,2.4078403E-2,2.872897E-1,-1.9228028E-1,-7.263453E-2,3.9292783E-1,-5.5646867E-1,9.976608E-3,-3.741729E-1,1.2984319E-1,-3.9452162E-1,3.928735E-1,-1.4802798E-2,-3.4741744E-1,-2.1923016E-1,3.3465564E-1,5.804772E-1,3.1317914E-1,-6.27365E-1,-6.513656E-2,9.976608E-3,-5.2458134E-2,1.8622911E-1,-5.195071E-2,-4.7657073E-2,-2.8564778E-4,8.70122E-2,2.9825998E-2,-7.3714494E-3,6.675736E-2,-2.6121384E-2,-6.0284484E-2,-5.248617E-3,-3.4590974E-2,5.4948386E-2,-4.8218187E-2,7.873457E-2,1.6634515E-2,2.6067058E-2,8.2945116E-2,-2.483141E-2,-6.8385534E-2,-4.8218187E-2,2.684374E-2,9.37572E-3,6.675736E-2],"categories":[],"categories_nodes":[],"categories_segments":[],"categories_sizes":[],"default_left":[0,0,0,0,0,0,0,0,0,0,0,0,0,0,0,0,0,0,0,0,0,0,0,0,0,0,0,0,0,0,0,0,0,0,0,0,0,0,0,0,0,0,0,0,0,0,0,0,0,0,0],"id":1,"left_children":[1,3,5,7,9,11,13,15,17,19,21,23,-1,25,27,29,31,33,35,37,39,41,43,45,47,-1,-1,49,-1,-1,-1,-1,-1,-1,-1,-1,-1,-1,-1,-1,-1,-1,-1,-1,-1,-1,-1,-1,-1,-1,-1],"loss_changes":[5.8940277E0,9.272938E0,5.860278E0,8.953905E0,6.1921997E0,1.0145407E0,1.9877387E0,4.014889E0,3.9143991E0,2.422775E0,1.4471874E0,1.1589413E0,0E0,7.593607E-1,1.4558449E0,2.4572337E-1,1.8595448E0,2.760369E0,1.5140686E0,6.057937E-1,2.161923E0,2.5524511E0,1.9142532E0,4.7224236E-1,8.8889253E-1,0E0,0E0,1.4903849E0,0E0,0E0,0E0,0E0,0E0,0E0,0E0,0E0,0E0,0E0,0E0,0E0,0E0,0E0,0E0,0E0,0E0,0E0,0E0,0E0,0E0,0E0,0E0],"parents":[2147483647,0,0,1,1,2,2,3,3,4,4,5,5,6,6,7,7,8,8,9,9,10,10,11,11,13,13,14,14,15,15,16,16,17,17,18,18,19,19,20,20,21,21,22,22,23,23,24,24,27,27],"right_children":[2,4,6,8,10,12,14,16,18,20,22,24,-1,26,28,30,32,34,36,38,40,42,44,46,48,-1,-1,50,-1,-1,-1,-1,-1,-1,-1,-1,-1,-1,-1,-1,-1,-1,-1,-1,-1,-1,-1,-1,-1,-1,-1],"split_conditions":[2.3129857E2,1.940199E2,2.9618176E2,2.0696082E0,2.0386834E0,2.4868869E2,1.9368135E0,1.1440753E0,2.799216E2,3.584188E2,2.0467102E2,4.5759587E0,9.976608E-3,3.1344678E2,4.9059586E2,4.32865E2,1.5712567E2,2.683586E2,4.287324E0,1.5632118E0,2.2527167E2,4.0492105E0,4.6236465E2,2.3398613E2,2.1125746E2,9.976608E-3,-5.2458134E-2,4.6830835E2,-5.195071E-2,-4.7657073E-2,-2.8564778E-4,8.70122E-2,2.9825998E-2,-7.3714494E-3,6.675736E-2,-2.6121384E-2,-6.0284484E-2,-5.248617E-3,-3.4590974E-2,5.4948386E-2,-4.8218187E-2,7.873457E-2,1.6634515E-2,2.6067058E-2,8.2945116E-2,-2.483141E-2,-6.8385534E-2,-4.8218187E-2,2.684374E-2,9.37572E-3,6.675736E-2],"split_indices":[0,0,3,1,1,0,1,1,3,3,0,1,0,3,3,3,0,3,1,1,0,1,3,0,3,0,0,3,0,0,0,0,0,0,0,0,0,0,0,0,0,0,0,0,0,0,0,0,0,0,0],"split_type":[0,0,0,0,0,0,0,0,0,0,0,0,0,0,0,0,0,0,0,0,0,0,0,0,0,0,0,0,0,0,0,0,0,0,0,0,0,0,0,0,0,0,0,0,0,0,0,0,0,0,0],"sum_hessian":[4.2094702E2,3.4023578E2,8.071124E1,1.9397453E2,1.4626126E2,3.5673477E1,4.5037766E1,5.2618378E1,1.4135616E2,3.8348988E1,1.0791227E2,3.3443886E1,2.2295923E0,8.918369E0,3.6119396E1,6.688777E0,4.5929604E1,6.644185E1,7.491431E1,2.8538782E1,9.810206E0,3.0322456E1,7.758981E1,2.8984701E1,4.4591846E0,2.2295923E0,6.688777E0,3.3889805E1,2.2295923E0,5.351022E0,1.3377554E0,6.2428584E0,3.9686745E1,6.1982666E1,4.4591846E0,5.7523483E1,1.739082E1,1.2931636E1,1.5607146E1,8.026532E0,1.7836739E0,1.9620413E1,1.0702044E1,7.179288E1,5.7969403E0,4.4591846E0,2.4525517E1,1.7836739E0,2.675511E0,2.9430618E1,4.4591846E0],"tree_param":{"num_deleted":"0","num_feature":"4","num_nodes":"51","size_leaf_vector":"1"}},{"base_weights":[-3.0702252E-2,4.676181E-1,-4.4284955E-1,-1.1001681E-1,7.402883E-1,-6.4474124E-1,-2.1324162E-1,-2.2013426E-1,1.6626725E-1,1.19340874E-1,9.056036E-1,-5.3215927E-1,-7.235264E-2,2.2195432E-1,-4.975223E-1,3.2570437E-1,-3.1612787E-1,3.517147E-1,-3.9853072E-1,6.032133E-1,-2.0292568E-1,6.828244E-1,1.1202681E0,-6.6300964E-1,-3.2827342E-1,-5.5415475E-1,4.0925518E-1,-6.207904E-1,-2.3212387E-1,-5.9261317E-3,9.626346E-2,-3.815752E-2,2.0227438E-2,-3.2283854E-2,5.6750335E-2,1.4323168E-4,-5.442964E-2,1.823425E-4,7.811668E-2,-4.2693578E-2,1.8704273E-2,3.16331E-2,9.1970645E-2,9.580861E-2,1.364771E-1,-6.9100544E-2,-1.185244E-2,4.3041434E-2,-3.9417945E-2,1.4323168E-4,-6.5094456E-2,1.3837113E-2,9.063568E-2,-6.387017E-2,-1.185244E-2,4.3041434E-2,-2.9341796E-2],"categories":[],"categories_nodes":[],"categories_segments":[],"categories_sizes":[],"default_left":[0,0,0,0,0,0,0,0,0,0,0,0,0,0,0,0,0,0,0,0,0,0,0,0,0,0,0,0,0,0,0,0,0,0,0,0,0,0,0,0,0,0,0,0,0,0,0,0,0,0,0,0,0,0,0,0,0],"id":2,"left_children":[1,3,5,7,9,11,13,15,17,19,21,23,-1,25,27,29,31,33,35,37,39,41,43,45,47,49,51,53,55,-1,-1,-1,-1,-1,-1,-1,-1,-1,-1,-1,-1,-1,-1,-1,-1,-1,-1,-1,-1,-1,-1,-1,-1,-1,-1,-1,-1],"loss_changes":[8.680155E1,3.0219372E1,1.0583725E1,1.9298859E0,1.32486725E1,7.0217514E-1,1.3683073E1,2.456968E0,2.0573676E0,4.568046E0,4.142029E0,1.2295036E0,0E0,6.6285453E0,2.0369396E0,1.8253536E0,1.3906906E0,2.266334E0,2.9189336E-1,1.245224E0,1.640101E0,4.302742E0,7.0266724E-1,4.0678215E-1,1.328959E0,4.8418808E-1,4.729278E0,3.284645E-1,1.0498083E0,0E0,0E0,0E0,0E0,0E0,0E0,0E0,0E0,0E0,0E0,0E0,0E0,0E0,0E0,0E0,0E0,0E0,0E0,0E0,0E0,0E0,0E0,0E0,0E0,0E0,0E0,0E0,0E0],"parents":[2147483647,0,0,1,1,2,2,3,3,4,4,5,5,6,6,7,7,8,8,9,9,10,10,11,11,13,13,14,14,15,15,16,16,17,17,18,18,19,19,20,20,21,21,22,22,23,23,24,24,25,25,26,26,27,27,28,28],"right_children":[2,4,6,8,10,12,14,16,18,20,22,24,-1,26,28,30,32,34,36,38,40,42,44,46,48,50,52,54,56,-1,-1,-1,-1,-1,-1,-1,-1,-1,-1,-1,-1,-1,-1,-1,-1,-1,-1,-1,-1,-1,-1,-1,-1,-1,-1,-1,-1],"split_conditions":[1.940199E2,2.113474E0,3.1426263E0,7.357348E-1,2.730842E-1,2.1974715E2,2.1635374E2,1.7655075E-1,1.810362E2,1.667042E2,3.5137057E0,6.0057163E-1,-7.235264E-2,2.8748384E-1,6.817666E-1,1.373476E-1,2.0441942E0,1.5673506E2,1.4795644E0,2.5913465E0,2.1191126E-1,5.6135374E-1,7.6170564E-1,2.1936823E2,6.249765E-1,1.9964612E2,4.3481646E0,4.961329E0,2.1974715E2,-5.9261317E-3,9.626346E-2,-3.815752E-2,2.0227438E-2,-3.2283854E-2,5.6750335E-2,1.4323168E-4,-5.442964E-2,1.823425E-4,7.811668E-2,-4.2693578E-2,1.8704273E-2,3.16331E-2,9.1970645E-2,9.580861E-2,1.364771E-1,-6.9100544E-2,-1.185244E-2,4.3041434E-2,-3.9417945E-2,1.4323168E-4,-6.5094456E-2,1.3837113E-2,9.063568E-2,-6.387017E-2,-1.185244E-2,4.3041434E-2,-2.9341796E-2],"split_indices":[0,1,1,2,2,0,0,2,0,0,1,2,0,2,2,2,1,0,1,1,2,2,2,0,2,0,1,1,0,0,0,0,0,0,0,0,0,0,0,0,0,0,0,0,0,0,0,0,0,0,0,0,0,0,0,0,0],"split_type":[0,0,0,0,0,0,0,0,0,0,0,0,0,0,0,0,0,0,0,0,0,0,0,0,0,0,0,0,0,0,0,0,0,0,0,0,0,0,0,0,0,0,0,0,0,0,0,0,0,0,0,0,0,0,0,0,0],"sum_hessian":[4.206276E2,1.9034729E2,2.3028029E2,6.12306E1,1.291167E2,1.215738E2,1.087065E2,4.39263E1,1.73043E1,2.75094E1,1.016073E2,5.3244E1,6.8329796E1,4.30389E1,6.5667595E1,6.2117996E0,3.77145E1,1.3311E1,3.9933E0,1.06488E1,1.68606E1,5.19129E1,4.9694397E1,3.1058998E1,2.2185E1,7.9866E0,3.50523E1,4.39263E1,2.1741299E1,4.437E0,1.7748E0,3.37212E1,3.9933E0,3.1058998E0,1.02051E1,1.3311E0,2.6622E0,2.6622E0,7.9866E0,1.06488E1,6.2117996E0,2.12976E1,3.06153E1,3.2833797E1,1.68606E1,2.9284199E1,1.7748E0,1.3311E0,2.0853899E1,1.3311E0,6.6555E0,2.35161E1,1.15362E1,4.2151497E1,1.7748E0,1.3311E0,2.04102E1],"tree_param":{"num_deleted":"0","num_feature":"4","num_nodes":"57","size_leaf_vector":"1"}},{"base_weights":[-2.850749E-3,3.2033825E-1,-1.8730055E-1,5.4085475E-1,-3.2810044E-2,5.0958022E-2,-3.199159E-1,6.4301497E-1,4.2704406E-1,2.908362E-1,-2.8919455E-1,1.4538974E-1,-3.420851E-1,1.5567759E-1,-3.8063332E-1,5.6173646E-1,1.1745361E-1,-4.1371876E-1,5.131911E-1,9.691683E-2,6.205973E-1,6.192919E-2,-4.3036127E-1,4.3928516E-1,7.2726615E-2,1.1869865E-2,-4.0757826E-1,4.5577335E-1,-1.8961212E-1,-2.6194882E-1,-5.1544255E-1,6.787311E-2,2.8884871E-2,-5.552518E-2,-1.6064424E-3,3.767117E-2,7.8011915E-2,-1.1914418E-2,4.4527445E-2,-1.2320397E-2,7.975047E-2,-2.5956064E-2,6.444577E-2,-1.9975528E-2,-6.054796E-2,5.582227E-2,-1.9952564E-2,-2.1665005E-2,1.5126439E-2,-6.365703E-2,-2.2346085E-2,8.309877E-2,8.63628E-3,-3.854726E-2,2.6815875E-2,-3.2670777E-2,9.602751E-2,-3.6915537E-2,-6.333689E-2],"categories":[],"categories_nodes":[],"categories_segments":[],"categories_sizes":[],"default_left":[0,0,0,0,0,0,0,0,0,0,0,0,0,0,0,0,0,0,0,0,0,0,0,0,0,0,0,0,0,0,0,0,0,0,0,0,0,0,0,0,0,0,0,0,0,0,0,0,0,0,0,0,0,0,0,0,0,0,0],"id":3,"left_children":[1,3,5,7,9,11,13,15,17,19,21,23,25,27,29,31,-1,33,35,37,39,41,43,45,47,-1,49,51,53,55,57,-1,-1,-1,-1,-1,-1,-1,-1,-1,-1,-1,-1,-1,-1,-1,-1,-1,-1,-1,-1,-1,-1,-1,-1,-1,-1,-1,-1],"loss_changes":[2.561548E1,1.2176762E1,8.659934E0,8.4361076E-1,5.142525E0,3.7123616E0,5.1381016E0,1.4442825E0,3.7229824E0,1.69485E0,1.7375319E0,1.682179E0,6.342702E-1,2.2232318E0,2.3650742E0,1.2138357E0,0E0,2.75778E-1,1.324048E0,1.4429871E0,1.4111559E0,2.1846209E0,8.7831926E-1,1.3052263E0,1.5226148E0,0E0,5.839348E-1,1.4981971E0,1.026408E0,7.051937E0,1.0104408E0,0E0,0E0,0E0,0E0,0E0,0E0,0E0,0E0,0E0,0E0,0E0,0E0,0E0,0E0,0E0,0E0,0E0,0E0,0E0,0E0,0E0,0E0,0E0,0E0,0E0,0E0,0E0,0E0],"parents":[2147483647,0,0,1,1,2,2,3,3,4,4,5,5,6,6,7,7,8,8,9,9,10,10,11,11,12,12,13,13,14,14,15,15,17,17,18,18,19,19,20,20,21,21,22,22,23,23,24,24,26,26,27,27,28,28,29,29,30,30],"right_children":[2,4,6,8,10,12,14,16,18,20,22,24,26,28,30,32,-1,34,36,38,40,42,44,46,48,-1,50,52,54,56,58,-1,-1,-1,-1,-1,-1,-1,-1,-1,-1,-1,-1,-1,-1,-1,-1,-1,-1,-1,-1,-1,-1,-1,-1,-1,-1,-1,-1],"split_conditions":[2.380335E0,3.2848517E2,2.3542162E2,2.2047023E2,4.3483922E-1,4.482676E0,1.9486123E-1,2.0598683E2,2.2655016E2,4.4862073E2,1.4072148E0,1.2923404E2,1.0987892E2,3.6843727E0,6.6029227E-1,1.7316917E2,1.1745361E-1,6.3936937E-1,6.4739025E-1,1.9368135E0,1.872691E-1,1.2506129E0,7.3931634E-1,4.2179785E0,3.0900222E-1,1.1869865E-2,4.6581945E0,3.0540714E2,4.5052776E0,6.422222E-1,3.4400296E0,6.787311E-2,2.8884871E-2,-5.552518E-2,-1.6064424E-3,3.767117E-2,7.8011915E-2,-1.1914418E-2,4.4527445E-2,-1.2320397E-2,7.975047E-2,-2.5956064E-2,6.444577E-2,-1.9975528E-2,-6.054796E-2,5.582227E-2,-1.9952564E-2,-2.1665005E-2,1.5126439E-2,-6.365703E-2,-2.2346085E-2,8.309877E-2,8.63628E-3,-3.854726E-2,2.6815875E-2,-3.2670777E-2,9.602751E-2,-3.6915537E-2,-6.333689E-2],"split_indices":[1,3,3,3,2,1,2,3,3,3,1,3,3,1,2,3,0,2,2,1,2,1,2,1,2,0,1,3,1,2,1,0,0,0,0,0,0,0,0,0,0,0,0,0,0,0,0,0,0,0,0,0,0,0,0,0,0,0,0],"split_type":[0,0,0,0,0,0,0,0,0,0,0,0,0,0,0,0,0,0,0,0,0,0,0,0,0,0,0,0,0,0,0,0,0,0,0,0,0,0,0,0,0,0,0,0,0,0,0,0,0,0,0,0,0,0,0,0,0,0,0],"sum_hessian":[4.276959E2,1.5513498E2,2.725609E2,9.517396E1,5.9961033E1,9.768122E1,1.748797E2,4.770369E1,4.747027E1,2.644451E1,3.351652E1,7.926683E1,1.841439E1,1.9621616E1,1.5525809E2,4.316056E1,4.543127E0,4.058488E0,4.3411777E1,1.7466852E1,8.977657E0,9.771984E0,2.3744537E1,1.4712937E1,6.4553894E1,2.1905036E0,1.6223886E1,1.03266325E1,9.294984E0,8.413217E1,7.112591E1,2.9168144E1,1.3992416E1,2.7008755E0,1.3576124E0,3.0320362E1,1.3091417E1,1.1186598E1,6.280254E0,1.7833195E0,7.1943383E0,6.6540985E0,3.1178856E0,1.1172556E1,1.2571982E1,1.250992E1,2.203017E0,1.3404766E1,5.1149128E1,6.1355352E0,1.0088351E1,4.5031934E0,5.8234386E0,6.6203547E0,2.6746294E0,8.05946E1,3.5375733E0,3.3589108E1,3.75368E1],"tree_param":{"num_deleted":"0","num_feature":"4","num_nodes":"59","size_leaf_vector":"1"}},{"base_weights":[-1.0634855E-2,4.1970182E-2,-2.3175082E-1,-1.0586852E-1,2.2854424E-1,-4.5474657E-1,1.1167222E-2,2.3312953E-1,-2.0395398E-1,-4.88529E-1,2.5840265E-1,-5.504277E-1,-9.004457E-2,4.465972E-1,-1.5646772E-1,-2.5151765E-1,4.8657528E-1,-9.339888E-2,-4.589479E-1,-6.1178442E-2,-1.6508095E-3,-1.1495687E-1,2.900003E-1,-6.16101E-1,-2.0215929E-1,-5.4270472E-2,1.4641194E-1,-4.47732E-3,8.4764495E-2,-3.273714E-1,3.6744726E-1,-4.997244E-2,3.022332E-2,6.659753E-2,-4.1948788E-2,-6.017852E-3,-5.1388483E-2,-5.2018713E-2,-4.747367E-4,-3.1129086E-2,8.325724E-2,4.4595234E-2,1.7228847E-2,-6.98403E-2,-4.638886E-2,-5.1764667E-2,6.4005353E-3,5.0154705E-2,-1.7188696E-2,6.0246E-2,-3.7150245E-2,-4.998816E-2,1.0423859E-3,-9.242381E-3,7.002781E-2],"categories":[],"categories_nodes":[],"categories_segments":[],"categories_sizes":[],"default_left":[0,0,0,0,0,0,0,0,0,0,0,0,0,0,0,0,0,0,0,0,0,0,0,0,0,0,0,0,0,0,0,0,0,0,0,0,0,0,0,0,0,0,0,0,0,0,0,0,0,0,0,0,0,0,0],"id":4,"left_children":[1,3,5,7,9,11,13,15,17,19,21,23,25,27,29,31,33,35,37,-1,-1,39,41,43,45,-1,47,49,-1,51,53,-1,-1,-1,-1,-1,-1,-1,-1,-1,-1,-1,-1,-1,-1,-1,-1,-1,-1,-1,-1,-1,-1,-1,-1],"loss_changes":[4.935056E0,9.482491E0,4.421606E0,6.4315405E0,3.3787217E0,1.4346209E0,2.9895053E0,5.471963E0,4.17007E0,3.633232E-1,1.7615318E0,6.416073E-1,1.153564E0,2.0620894E0,2.7724953E0,2.2971108E0,4.98317E0,1.4427966E0,1.247572E0,0E0,0E0,2.518792E0,2.4077406E0,2.2960663E-2,6.043819E-1,0E0,9.2036116E-1,1.6382864E0,0E0,1.3375525E0,1.2519902E0,0E0,0E0,0E0,0E0,0E0,0E0,0E0,0E0,0E0,0E0,0E0,0E0,0E0,0E0,0E0,0E0,0E0,0E0,0E0,0E0,0E0,0E0,0E0,0E0],"parents":[2147483647,0,0,1,1,2,2,3,3,4,4,5,5,6,6,7,7,8,8,9,9,10,10,11,11,12,12,13,13,14,14,15,15,16,16,17,17,18,18,21,21,22,22,23,23,24,24,26,26,27,27,29,29,30,30],"right_children":[2,4,6,8,10,12,14,16,18,20,22,24,26,28,30,32,34,36,38,-1,-1,40,42,44,46,-1,48,50,-1,52,54,-1,-1,-1,-1,-1,-1,-1,-1,-1,-1,-1,-1,-1,-1,-1,-1,-1,-1,-1,-1,-1,-1,-1,-1],"split_conditions":[2.3098744E2,1.940199E2,6.122858E-1,2.730842E-1,1.4613712E-1,4.4059567E2,6.817666E-1,1.6740626E-1,3.6317996E2,3.4152124E2,1.3431772E2,2.4730106E2,2.5145072E-1,3.1080304E2,9.364631E-1,1.7656E2,1.8630823E2,9.570376E-1,1.8745401E2,-6.1178442E-2,-1.6508095E-3,7.2744966E-1,5.0327694E-1,3.0728732E2,2.272452E-1,-5.4270472E-2,3.3911702E-1,2.37389E2,8.4764495E-2,3.458164E2,2.3655072E2,-4.997244E-2,3.022332E-2,6.659753E-2,-4.1948788E-2,-6.017852E-3,-5.1388483E-2,-5.2018713E-2,-4.747367E-4,-3.1129086E-2,8.325724E-2,4.4595234E-2,1.7228847E-2,-6.98403E-2,-4.638886E-2,-5.1764667E-2,6.4005353E-3,5.0154705E-2,-1.7188696E-2,6.0246E-2,-3.7150245E-2,-4.998816E-2,1.0423859E-3,-9.242381E-3,7.002781E-2],"split_indices":[0,0,2,2,2,3,2,2,3,3,3,0,2,3,2,0,0,2,0,0,0,2,2,3,2,0,2,0,0,3,0,0,0,0,0,0,0,0,0,0,0,0,0,0,0,0,0,0,0,0,0,0,0,0,0],"split_type":[0,0,0,0,0,0,0,0,0,0,0,0,0,0,0,0,0,0,0,0,0,0,0,0,0,0,0,0,0,0,0,0,0,0,0,0,0,0,0,0,0,0,0,0,0,0,0,0,0,0,0,0,0,0,0],"sum_hessian":[4.2243607E2,3.4190472E2,8.053134E1,1.9099529E2,1.5090945E2,4.153276E1,3.8998577E1,4.2552094E1,1.4844319E2,5.418496E0,1.4549095E2,3.2497623E1,9.03514E0,1.0377924E1,2.8620655E1,1.4614116E1,2.7937977E1,1.0450173E2,4.3941463E1,4.0617776E0,1.3567187E0,1.114639E1,1.3434456E2,2.6694727E1,5.802895E0,2.6558194E0,6.37932E0,5.3497176E0,5.028207E0,2.1863737E1,6.7569165E0,1.0158399E1,4.455717E0,2.354171E1,4.396266E0,9.790953E1,6.5921946E0,3.8592773E1,5.3486905E0,9.78943E0,1.3569603E0,5.6586586E1,7.775798E1,1.4997287E1,1.169744E1,2.2230535E0,3.5798416E0,2.7430787E0,3.6362414E0,1.7742431E0,3.5754747E0,1.4155012E1,7.7087255E0,3.1402943E0,3.6166222E0],"tree_param":{"num_deleted":"0","num_feature":"4","num_nodes":"55","size_leaf_vector":"1"}},{"base_weights":[1.3677178E-2,4.640929E-1,-3.721802E-1,-1.1076557E-1,7.038552E-1,-6.177458E-1,-1.4080419E-1,-4.6504104E-1,3.9777556E-1,5.8453786E-1,1.0649862E0,-6.332918E-1,3.9344747E-2,-4.426849E-1,2.0652805E-1,-2.2587673E-1,-6.488569E-1,-3.1054088E-1,5.0973934E-1,4.4582516E-1,9.2940503E-1,1.1655767E0,5.0071913E-1,-5.214286E-1,-7.179213E-2,4.6966594E-2,-4.0771212E-2,-5.21086E-1,1.08077995E-1,6.5338653E-1,-1.2565272E-1,-3.981265E-2,4.239216E-2,-6.947667E-2,-1.1702618E-2,1.2560905E-3,-4.6946067E-2,6.1792817E-2,-4.7387205E-2,9.480184E-2,3.8889877E-2,7.129356E-2,1.132309E-1,1.19240776E-1,3.7787266E-2,8.195978E-2,-4.5119572E-2,-5.5568602E-2,4.488653E-2,-3.2242235E-2,-6.562817E-2,7.0642866E-2,-4.2151924E-2,1.05749965E-1,4.9896713E-2,-2.0121133E-2,5.532943E-2],"categories":[],"categories_nodes":[],"categories_segments":[],"categories_sizes":[],"default_left":[0,0,0,0,0,0,0,0,0,0,0,0,0,0,0,0,0,0,0,0,0,0,0,0,0,0,0,0,0,0,0,0,0,0,0,0,0,0,0,0,0,0,0,0,0,0,0,0,0,0,0,0,0,0,0,0,0],"id":5,"left_children":[1,3,5,7,9,11,13,15,17,19,21,23,25,27,29,31,33,35,37,39,41,43,45,47,-1,-1,-1,49,51,53,55,-1,-1,-1,-1,-1,-1,-1,-1,-1,-1,-1,-1,-1,-1,-1,-1,-1,-1,-1,-1,-1,-1,-1,-1,-1,-1],"loss_changes":[7.573152E1,2.7787392E1,1.3248966E1,1.1001169E1,5.496414E0,1.185051E0,1.2898527E1,1.4292912E0,2.155984E0,4.7978325E0,1.3490448E0,6.765175E-1,8.775733E-1,2.8917818E0,8.614003E0,2.0840316E0,4.0052605E-1,2.1435031E-1,2.6478004E0,1.9076271E0,5.2497864E-1,1.4427185E-1,2.4657054E0,1.9600468E0,0E0,0E0,0E0,1.3369169E0,3.1531916E0,1.0118103E0,1.8456998E0,0E0,0E0,0E0,0E0,0E0,0E0,0E0,0E0,0E0,0E0,0E0,0E0,0E0,0E0,0E0,0E0,0E0,0E0,0E0,0E0,0E0,0E0,0E0,0E0,0E0,0E0],"parents":[2147483647,0,0,1,1,2,2,3,3,4,4,5,5,6,6,7,7,8,8,9,9,10,10,11,11,12,12,13,13,14,14,15,15,16,16,17,17,18,18,19,19,20,20,21,21,22,22,23,23,27,27,28,28,29,29,30,30],"right_children":[2,4,6,8,10,12,14,16,18,20,22,24,26,28,30,32,34,36,38,40,42,44,46,48,-1,-1,-1,50,52,54,56,-1,-1,-1,-1,-1,-1,-1,-1,-1,-1,-1,-1,-1,-1,-1,-1,-1,-1,-1,-1,-1,-1,-1,-1,-1,-1],"split_conditions":[1.940199E2,2.124199E0,2.9513373E0,3.2162335E2,4.0254242E2,4.849352E2,3.1344678E2,1.7207697E2,1.5365497E2,4.133192E0,1.8420818E2,2.1974715E2,2.216795E0,4.766903E0,2.1635374E2,1.6748386E2,2.9084393E2,3.511835E2,4.7347156E2,1.5373482E2,2.4176959E2,4.9343893E2,4.7621494E2,2.1959743E2,-7.179213E-2,4.6966594E-2,-4.0771212E-2,2.1635374E2,2.2259557E2,1.9811401E2,4.9059586E2,-3.981265E-2,4.239216E-2,-6.947667E-2,-1.1702618E-2,1.2560905E-3,-4.6946067E-2,6.1792817E-2,-4.7387205E-2,9.480184E-2,3.8889877E-2,7.129356E-2,1.132309E-1,1.19240776E-1,3.7787266E-2,8.195978E-2,-4.5119572E-2,-5.5568602E-2,4.488653E-2,-3.2242235E-2,-6.562817E-2,7.0642866E-2,-4.2151924E-2,1.05749965E-1,4.9896713E-2,-2.0121133E-2,5.532943E-2],"split_indices":[0,1,1,3,3,3,3,0,0,1,0,0,1,1,0,0,3,3,3,0,3,3,3,0,0,0,0,0,0,0,3,0,0,0,0,0,0,0,0,0,0,0,0,0,0,0,0,0,0,0,0,0,0,0,0,0,0],"split_type":[0,0,0,0,0,0,0,0,0,0,0,0,0,0,0,0,0,0,0,0,0,0,0,0,0,0,0,0,0,0,0,0,0,0,0,0,0,0,0,0,0,0,0,0,0,0,0,0,0,0,0,0,0,0,0,0,0],"sum_hessian":[4.3375504E2,2.0004152E2,2.3371352E2,5.9035343E1,1.4100618E2,1.1257003E2,1.2114349E2,3.4845642E1,2.41897E1,1.07956184E2,3.305E1,1.1000369E2,2.5663364E0,6.466551E1,5.647798E1,1.6111568E1,1.8734074E1,3.0596783E0,2.1130022E1,7.862452E1,2.9331663E1,2.7145245E1,5.9047565E0,5.0463028E1,5.9540665E1,1.2818753E0,1.2844613E0,5.6654613E1,8.010902E0,2.3669788E1,3.2808193E1,1.3041746E1,3.0698228E0,1.696336E1,1.7707144E0,1.3123941E0,1.7472842E0,1.937114E1,1.7588822E0,6.4113617E0,7.221316E1,1.6375263E1,1.2956399E1,2.5754217E1,1.3910259E0,4.527205E0,1.3775516E0,4.9154858E1,1.3081703E0,2.4312868E1,3.2341743E1,3.6045287E0,4.4063735E0,4.9271865E0,1.8742601E1,3.0155853E1,2.6523411E0],"tree_param":{"num_deleted":"0","num_feature":"4","num_nodes":"57","size_leaf_vector":"1"}},{"base_weights":[-3.0426246E-3,-3.2628068E-1,6.031358E-1,-4.799852E-1,-8.321449E-2,7.724984E-1,5.493755E-2,-1.2924404E-1,-5.464357E-1,1.3070546E-1,-3.4674087E-1,5.8201545E-1,9.605873E-1,1.0633345E-1,-2.0302771E-1,-3.739193E-1,1.4463289E-1,-2.72184E-1,-5.719157E-1,7.845499E-2,6.272233E-2,3.0197823E-1,-5.0622267E-1,6.28961E-1,-2.8442705E-1,1.0006778E0,-4.059861E-2,-8.313953E-4,-5.0286245E-1,-1.5054064E-2,-6.331765E-2,2.7446484E-2,-4.811235E-2,-3.7836574E-2,4.1241005E-2,-5.9370518E-2,-2.4070105E-2,3.4106445E-2,-2.0533866E-4,-1.8388681E-3,9.879854E-2,-3.559109E-2,-6.344297E-2,5.451105E-2,8.364744E-2,-4.3474913E-2,-1.2989227E-3,1.123058E-1,7.2549626E-2,-4.636326E-2,7.4381195E-3,-6.619079E-2,4.3010335E-2],"categories":[],"categories_nodes":[],"categories_segments":[],"categories_sizes":[],"default_left":[0,0,0,0,0,0,0,0,0,0,0,0,0,0,0,0,0,0,0,0,0,0,0,0,0,0,0,0,0,0,0,0,0,0,0,0,0,0,0,0,0,0,0,0,0,0,0,0,0,0,0,0,0],"id":6,"left_children":[1,3,5,7,9,11,13,15,17,19,21,23,25,-1,27,29,31,33,35,-1,37,39,41,43,45,47,-1,49,51,-1,-1,-1,-1,-1,-1,-1,-1,-1,-1,-1,-1,-1,-1,-1,-1,-1,-1,-1,-1,-1,-1,-1,-1],"loss_changes":[8.295391E1,1.0275921E1,1.3628117E1,3.8669205E0,6.1435094E0,3.4684067E0,9.536226E0,1.9450707E0,8.346939E-1,2.6370707E0,5.195603E0,2.5538692E0,3.4208527E0,0E0,1.7801759E0,7.839699E-1,1.2723876E0,1.1705184E0,7.864151E-1,0E0,1.0072755E0,2.2696369E0,5.35347E-1,5.131893E-1,1.4489967E-1,9.951744E-1,0E0,6.7993665E-1,2.0396934E0,0E0,0E0,0E0,0E0,0E0,0E0,0E0,0E0,0E0,0E0,0E0,0E0,0E0,0E0,0E0,0E0,0E0,0E0,0E0,0E0,0E0,0E0,0E0,0E0],"parents":[2147483647,0,0,1,1,2,2,3,3,4,4,5,5,6,6,7,7,8,8,9,9,10,10,11,11,12,12,14,14,15,15,16,16,17,17,18,18,20,20,21,21,22,22,23,23,24,24,25,25,27,27,28,28],"right_children":[2,4,6,8,10,12,14,16,18,20,22,24,26,-1,28,30,32,34,36,-1,38,40,42,44,46,48,-1,50,52,-1,-1,-1,-1,-1,-1,-1,-1,-1,-1,-1,-1,-1,-1,-1,-1,-1,-1,-1,-1,-1,-1,-1,-1],"split_conditions":[2.1675934E2,1.8910815E2,4.147903E2,1.6562544E2,2.9299722E2,2.3511366E2,2.5145072E-1,1.3431772E2,1.6740626E-1,1.7135225E-1,3.150979E-1,2.3398613E2,9.7003555E-1,1.0633345E-1,4.658466E2,5.668731E-1,8.6219853E-1,1.574151E-1,1.8701587E2,7.845499E-2,1.4854877E2,2.0754742E2,6.685502E-1,8.493506E-1,2.3420332E2,3.1080304E2,-4.059861E-2,4.210625E2,2.4553346E2,-1.5054064E-2,-6.331765E-2,2.7446484E-2,-4.811235E-2,-3.7836574E-2,4.1241005E-2,-5.9370518E-2,-2.4070105E-2,3.4106445E-2,-2.0533866E-4,-1.8388681E-3,9.879854E-2,-3.559109E-2,-6.344297E-2,5.451105E-2,8.364744E-2,-4.3474913E-2,-1.2989227E-3,1.123058E-1,7.2549626E-2,-4.636326E-2,7.4381195E-3,-6.619079E-2,4.3010335E-2],"split_indices":[0,0,3,3,3,0,2,3,2,2,2,0,2,0,3,2,2,2,0,0,3,0,2,2,0,3,0,3,0,0,0,0,0,0,0,0,0,0,0,0,0,0,0,0,0,0,0,0,0,0,0,0,0],"split_type":[0,0,0,0,0,0,0,0,0,0,0,0,0,0,0,0,0,0,0,0,0,0,0,0,0,0,0,0,0,0,0,0,0,0,0,0,0,0,0,0,0,0,0,0,0,0,0,0,0,0,0,0,0],"sum_hessian":[4.2135953E2,2.7511774E2,1.4624179E2,1.679431E2,1.0717464E2,1.1141244E2,3.482936E1,2.7219133E1,1.4072397E2,5.9433205E1,4.7741432E1,5.738817E1,5.402427E1,6.458971E0,2.837039E1,1.4183047E1,1.3036087E1,1.2955938E1,1.2776803E2,4.604823E0,5.4828384E1,9.244475E0,3.8496956E1,5.4698578E1,2.689591E0,5.274467E1,1.2795975E0,1.7542929E1,1.0827462E1,8.46778E0,5.7152667E0,1.1261034E1,1.7750524E0,1.1603525E1,1.3524133E0,1.1913783E2,8.630194E0,9.545581E0,4.5282803E1,6.964999E0,2.279476E0,1.9458992E1,1.9037964E1,4.154018E1,1.3158395E1,1.3437631E0,1.3458278E0,3.4375755E1,1.8368916E1,1.730493E0,1.5812435E1,9.498721E0,1.3287406E0],"tree_param":{"num_deleted":"0","num_feature":"4","num_nodes":"53","size_leaf_vector":"1"}},{"base_weights":[1.7657131E-2,3.495775E-2,-3.2802472E-1,7.5412E-2,-1.7058818E-1,-4.263158E-1,2.2409478E-1,1.1925245E-1,-9.1080606E-2,-4.497991E-1,1.5329051E-1,-4.9826702E-1,-1.7832106E-2,7.837939E-2,-4.409374E-2,-1.7418715E-1,1.5197816E-1,-3.0050102E-1,1.8185265E-1,-5.521808E-1,-3.002475E-1,-6.369346E-2,8.188306E-1,-6.01053E-2,-7.323292E-2,4.2436417E-2,-4.4599596E-2,-3.722183E-2,3.9574917E-2,2.1905838E-2,-9.68195E-3,4.0516E-3,-4.5470543E-2,-6.1111342E-2,3.0667573E-2,-5.9088677E-2,6.369846E-4,-1.6061468E-2,-6.0350787E-2,-4.006985E-2,1.649714E-2,1.0621863E-1,4.2863384E-2,-4.5126855E-2,3.842268E-2],"categories":[],"categories_nodes":[],"categories_segments":[],"categories_sizes":[],"default_left":[0,0,0,0,0,0,0,0,0,0,0,0,0,0,0,0,0,0,0,0,0,0,0,0,0,0,0,0,0,0,0,0,0,0,0,0,0,0,0,0,0,0,0,0,0],"id":7,"left_children":[1,3,5,7,9,11,13,15,17,19,21,23,25,-1,-1,27,29,31,33,35,37,39,41,-1,43,-1,-1,-1,-1,-1,-1,-1,-1,-1,-1,-1,-1,-1,-1,-1,-1,-1,-1,-1,-1],"loss_changes":[2.576877E0,3.417276E0,1.2102985E0,2.512888E0,6.1852016E0,5.1374125E-1,1.7450483E0,2.636289E0,4.170859E0,3.942418E-1,4.681782E0,6.148672E-1,8.898296E-1,0E0,0E0,3.2775025E0,4.1107187E0,2.1810694E0,3.3438244E0,4.4740152E-1,6.252973E-1,2.0006669E0,3.0002737E-1,0E0,8.782273E-1,0E0,0E0,0E0,0E0,0E0,0E0,0E0,0E0,0E0,0E0,0E0,0E0,0E0,0E0,0E0,0E0,0E0,0E0,0E0,0E0],"parents":[2147483647,0,0,1,1,2,2,3,3,4,4,5,5,6,6,7,7,8,8,9,9,10,10,11,11,12,12,15,15,16,16,17,17,18,18,19,19,20,20,21,21,22,22,24,24],"right_children":[2,4,6,8,10,12,14,16,18,20,22,24,26,-1,-1,28,30,32,34,36,38,40,42,-1,44,-1,-1,-1,-1,-1,-1,-1,-1,-1,-1,-1,-1,-1,-1,-1,-1,-1,-1,-1,-1],"split_conditions":[9.623243E-1,2.3420332E2,2.3398613E2,4.0254242E2,3.4038287E2,9.923795E-1,2.4688779E2,1.3335162E2,1.9486937E2,2.4376953E2,7.1588284E-1,3.8575504E2,2.0052524E2,7.837939E-2,-4.409374E-2,7.2744966E-1,7.840314E-1,2.8521493E-1,4.147903E2,8.902302E-1,3.1344678E2,3.8836116E-1,8.246073E-1,-6.01053E-2,1.7656E2,4.2436417E-2,-4.4599596E-2,-3.722183E-2,3.9574917E-2,2.1905838E-2,-9.68195E-3,4.0516E-3,-4.5470543E-2,-6.1111342E-2,3.0667573E-2,-5.9088677E-2,6.369846E-4,-1.6061468E-2,-6.0350787E-2,-4.006985E-2,1.649714E-2,1.0621863E-1,4.2863384E-2,-4.5126855E-2,3.842268E-2],"split_indices":[2,0,0,3,3,2,0,3,0,3,2,3,0,0,0,2,2,2,3,2,3,2,2,0,0,0,0,0,0,0,0,0,0,0,0,0,0,0,0,0,0,0,0,0,0],"split_type":[0,0,0,0,0,0,0,0,0,0,0,0,0,0,0,0,0,0,0,0,0,0,0,0,0,0,0,0,0,0,0,0,0,0,0,0,0,0,0,0,0,0,0,0,0],"sum_hessian":[4.2796167E2,4.0842E2,1.9541658E1,3.4178516E2,6.6634865E1,1.6781914E1,2.7597446E0,2.707703E2,7.101488E1,3.5576294E1,3.105857E1,1.408173E1,2.7001839E0,1.4015784E0,1.358166E0,2.673396E1,2.4403633E2,4.012565E1,3.0889229E1,1.952049E1,1.6055803E1,2.410424E1,6.954332E0,1.1006017E1,3.075713E0,1.3326907E0,1.3674932E0,2.0097689E1,6.6362696E0,1.9230663E2,5.1729702E1,1.2724086E1,2.7401562E1,3.671212E0,2.7218016E1,1.82013E1,1.3191913E0,1.2041198E1,4.014606E0,9.439709E0,1.4664531E1,3.2224147E0,3.7319171E0,1.6914588E0,1.3842541E0],"tree_param":{"num_deleted":"0","num_feature":"4","num_nodes":"45","size_leaf_vector":"1"}},{"base_weights":[-1.9222729E-2,3.707828E-1,-4.137225E-1,1.2450092E-1,6.3831013E-1,-5.6699866E-1,-2.0224462E-1,3.7774485E-1,-1.17863856E-1,4.237753E-1,9.3339133E-1,-2.9292697E-1,-6.305314E-1,2.1968031E-1,-3.837755E-1,-1.227409E-1,4.8892158E-1,-3.423136E-1,3.2525295E-1,4.5963132E-1,-4.853619E-2,1.0335749E0,5.373895E-1,-4.1918904E-1,5.4300934E-1,-6.485387E-1,-1.0207024E-1,-5.2856393E-2,3.1862676E-1,-4.4127458E-1,3.0424073E-1,1.3451941E-2,-5.7062794E-2,6.3966334E-2,3.2472517E-2,-4.613046E-2,-5.5577764E-3,6.24295E-2,6.5160105E-3,4.9788315E-2,-2.6082013E-2,4.246838E-2,1.0979324E-1,7.822639E-2,-4.5703586E-2,-5.0231434E-2,-1.2524764E-2,7.350689E-4,8.395486E-2,-5.2175194E-2,-6.935094E-2,4.4570815E-2,-4.7974747E-2,-2.275496E-2,4.4514313E-2,-5.2143436E-2,-8.173818E-3,-4.3084554E-2,6.4816706E-2],"categories":[],"categories_nodes":[],"categories_segments":[],"categories_sizes":[],"default_left":[0,0,0,0,0,0,0,0,0,0,0,0,0,0,0,0,0,0,0,0,0,0,0,0,0,0,0,0,0,0,0,0,0,0,0,0,0,0,0,0,0,0,0,0,0,0,0,0,0,0,0,0,0,0,0,0,0,0,0],"id":8,"left_children":[1,3,5,7,9,11,13,15,17,19,21,23,25,27,29,31,33,35,37,39,-1,41,43,45,47,49,51,-1,53,55,57,-1,-1,-1,-1,-1,-1,-1,-1,-1,-1,-1,-1,-1,-1,-1,-1,-1,-1,-1,-1,-1,-1,-1,-1,-1,-1,-1,-1],"loss_changes":[6.476392E1,1.3868805E1,6.667717E0,6.886192E0,6.0128784E0,1.9180107E0,6.937832E0,3.1063638E0,5.8520265E0,2.1935368E0,1.1022606E0,2.8233244E0,8.58448E-1,2.2083595E0,2.6236677E0,1.3154784E0,9.060488E-1,1.2981987E0,1.5086303E0,1.7466345E0,0E0,7.9805374E-1,2.9191241E0,4.729247E-1,5.756401E-1,1.7284775E-1,1.1217581E0,0E0,1.8259807E0,1.642848E0,1.6559057E0,0E0,0E0,0E0,0E0,0E0,0E0,0E0,0E0,0E0,0E0,0E0,0E0,0E0,0E0,0E0,0E0,0E0,0E0,0E0,0E0,0E0,0E0,0E0,0E0,0E0,0E0,0E0,0E0],"parents":[2147483647,0,0,1,1,2,2,3,3,4,4,5,5,6,6,7,7,8,8,9,9,10,10,11,11,12,12,13,13,14,14,15,15,16,16,17,17,18,18,19,19,21,21,22,22,23,23,24,24,25,25,26,26,28,28,29,29,30,30],"right_children":[2,4,6,8,10,12,14,16,18,20,22,24,26,28,30,32,34,36,38,40,-1,42,44,46,48,50,52,-1,54,56,58,-1,-1,-1,-1,-1,-1,-1,-1,-1,-1,-1,-1,-1,-1,-1,-1,-1,-1,-1,-1,-1,-1,-1,-1,-1,-1,-1,-1],"split_conditions":[1.9964612E2,2.9826157E2,3.14643E2,1.7336078E2,6.630849E-1,2.0843143E2,2.1635374E2,2.3444347E-1,7.527937E-1,4.8804675E2,1.8745401E2,8.766637E-1,9.7003555E-1,2.4068527E-1,4.8804675E2,1.7870185E-1,1.6078914E2,2.4256189E2,1.8983295E2,1.9547398E2,-4.853619E-2,1.5244008E2,9.235014E-1,2.0538542E2,2.0243903E2,2.189465E2,9.846522E-1,-5.2856393E-2,2.0203078E2,7.9187244E-1,1.901395E-1,1.3451941E-2,-5.7062794E-2,6.3966334E-2,3.2472517E-2,-4.613046E-2,-5.5577764E-3,6.24295E-2,6.5160105E-3,4.9788315E-2,-2.6082013E-2,4.246838E-2,1.0979324E-1,7.822639E-2,-4.5703586E-2,-5.0231434E-2,-1.2524764E-2,7.350689E-4,8.395486E-2,-5.2175194E-2,-6.935094E-2,4.4570815E-2,-4.7974747E-2,-2.275496E-2,4.4514313E-2,-5.2143436E-2,-8.173818E-3,-4.3084554E-2,6.4816706E-2],"split_indices":[0,3,3,0,2,0,0,2,2,3,0,2,2,2,3,2,0,3,3,0,0,0,2,0,0,0,2,0,0,2,2,0,0,0,0,0,0,0,0,0,0,0,0,0,0,0,0,0,0,0,0,0,0,0,0,0,0,0,0],"split_type":[0,0,0,0,0,0,0,0,0,0,0,0,0,0,0,0,0,0,0,0,0,0,0,0,0,0,0,0,0,0,0,0,0,0,0,0,0,0,0,0,0,0,0,0,0,0,0,0,0,0,0,0,0,0,0,0,0,0,0],"sum_hessian":[4.1893857E2,2.1069952E2,2.0823906E2,1.1046885E2,1.00230675E2,1.1975859E2,8.848047E1,5.374881E1,5.6720043E1,5.94468E1,4.0783875E1,2.3592833E1,9.616576E1,2.6553373E1,6.1927094E1,9.750561E0,4.399825E1,3.7800587E1,1.8919456E1,5.766687E1,1.7799294E0,3.126435E1,9.519523E0,2.0930042E1,2.66279E0,9.2777145E1,3.3886108E0,2.5941556E0,2.3959217E1,5.7481834E1,4.4452596E0,6.6376443E0,3.1129165E0,2.142925E1,2.2568998E1,2.6284222E1,1.1516364E1,8.149398E0,1.0770058E1,5.505281E1,2.6140594E0,3.7150235E0,2.7549328E1,7.809746E0,1.7097766E0,1.5763345E1,5.1666975E0,1.3140042E0,1.3487859E0,2.7591097E1,6.518605E1,1.309377E0,2.079234E0,4.355926E0,1.960329E1,4.6634274E1,1.084756E1,1.3363352E0,3.1089244E0],"tree_param":{"num_deleted":"0","num_feature":"4","num_nodes":"59","size_leaf_vector":"1"}},{"base_weights":[2.2278681E-2,-2.6722547E-1,5.5675095E-1,-9.0784274E-2,-4.897517E-1,8.210962E-1,3.2136193E-1,-2.9635337E-1,2.3889327E-1,-1.9823994E-1,-5.7171834E-1,5.318729E-1,9.6175617E-1,1.2924676E-1,6.097902E-1,2.5881544E-1,-3.4790704E-1,3.4627485E-1,-3.4840012E-1,-3.967173E-1,3.4046152E-1,-4.8431396E-1,-6.587319E-1,-1.5563293E-2,5.940818E-1,9.9567723E-1,1.333099E-2,6.673743E-1,2.326862E-2,6.546612E-1,-1.0167288E-2,-5.3616976E-3,9.177104E-2,-6.090921E-2,-2.4492098E-2,3.874291E-2,-4.924083E-2,-6.049786E-2,7.2985175E-3,-2.022591E-2,-5.6076366E-2,-4.13643E-2,5.4670867E-2,-5.4885607E-2,-2.093756E-2,1.8230848E-3,-6.798636E-2,8.10604E-2,3.1428482E-2,1.09223105E-1,5.3717297E-2,-2.413175E-2,1.0735315E-1,2.5870124E-2,-3.7299547E-2,8.4057435E-2,3.9838046E-2],"categories":[],"categories_nodes":[],"categories_segments":[],"categories_sizes":[],"default_left":[0,0,0,0,0,0,0,0,0,0,0,0,0,0,0,0,0,0,0,0,0,0,0,0,0,0,0,0,0,0,0,0,0,0,0,0,0,0,0,0,0,0,0,0,0,0,0,0,0,0,0,0,0,0,0,0,0],"id":9,"left_children":[1,3,5,7,9,11,13,15,17,19,21,23,25,27,29,31,33,35,37,39,41,43,45,-1,47,49,-1,51,53,55,-1,-1,-1,-1,-1,-1,-1,-1,-1,-1,-1,-1,-1,-1,-1,-1,-1,-1,-1,-1,-1,-1,-1,-1,-1,-1,-1],"loss_changes":[6.482402E1,1.0627169E1,8.894409E0,1.042801E1,2.7533588E0,2.2826767E0,4.3263073E0,2.7969332E0,3.8571177E0,3.1140084E0,3.8912964E-1,1.149323E0,1.1310921E0,2.7780685E0,1.0725985E0,1.8215995E0,2.1901026E0,1.9369583E0,1.0882533E0,5.508008E-1,1.4765456E0,7.764015E-1,6.4017296E-1,0E0,1.1306467E0,1.3190918E0,0E0,3.2203546E0,4.011209E0,1.0839481E0,0E0,0E0,0E0,0E0,0E0,0E0,0E0,0E0,0E0,0E0,0E0,0E0,0E0,0E0,0E0,0E0,0E0,0E0,0E0,0E0,0E0,0E0,0E0,0E0,0E0,0E0,0E0],"parents":[2147483647,0,0,1,1,2,2,3,3,4,4,5,5,6,6,7,7,8,8,9,9,10,10,11,11,12,12,13,13,14,14,15,15,16,16,17,17,18,18,19,19,20,20,21,21,22,22,24,24,25,25,27,27,28,28,29,29],"right_children":[2,4,6,8,10,12,14,16,18,20,22,24,26,28,30,32,34,36,38,40,42,44,46,-1,48,50,-1,52,54,56,-1,-1,-1,-1,-1,-1,-1,-1,-1,-1,-1,-1,-1,-1,-1,-1,-1,-1,-1,-1,-1,-1,-1,-1,-1,-1,-1],"split_conditions":[2.1635374E2,2.9618176E2,2.8876102E2,1.916154E2,2.730842E-1,2.2798755E2,2.3779744E2,1.6740626E-1,8.549554E-1,1.830898E2,6.685502E-1,1.822798E-1,2.4877855E2,2.5145072E-1,4.849352E2,2.5988782E2,1.6183362E2,2.1564786E2,9.364631E-1,1.6424956E2,1.6740626E-1,2.0190598E2,1.5224693E2,-1.5563293E-2,1.983999E2,8.344511E-1,1.333099E-2,2.203019E2,4.147903E2,5.1880324E-1,-1.0167288E-2,-5.3616976E-3,9.177104E-2,-6.090921E-2,-2.4492098E-2,3.874291E-2,-4.924083E-2,-6.049786E-2,7.2985175E-3,-2.022591E-2,-5.6076366E-2,-4.13643E-2,5.4670867E-2,-5.4885607E-2,-2.093756E-2,1.8230848E-3,-6.798636E-2,8.10604E-2,3.1428482E-2,1.09223105E-1,5.3717297E-2,-2.413175E-2,1.0735315E-1,2.5870124E-2,-3.7299547E-2,8.4057435E-2,3.9838046E-2],"split_indices":[0,3,3,0,2,0,0,2,2,0,2,2,0,2,3,3,0,0,2,0,2,0,0,0,3,2,0,0,3,2,0,0,0,0,0,0,0,0,0,0,0,0,0,0,0,0,0,0,0,0,0,0,0,0,0,0,0],"split_type":[0,0,0,0,0,0,0,0,0,0,0,0,0,0,0,0,0,0,0,0,0,0,0,0,0,0,0,0,0,0,0,0,0,0,0,0,0,0,0,0,0,0,0,0,0,0,0,0,0,0,0,0,0,0,0,0,0],"sum_hessian":[4.1698248E2,2.7080002E2,1.4618246E2,1.5182549E2,1.1897453E2,6.768407E1,7.84984E1,9.3577E1,5.8248474E1,2.6861387E1,9.211315E1,2.3711033E1,4.3973038E1,4.798491E1,3.0513489E1,7.6097035E0,8.59673E1,4.9591484E1,8.656991E0,1.9821856E1,7.0395317E0,4.9228996E1,4.288415E1,1.84285E0,2.1868183E1,4.2049442E1,1.9235936E0,7.023623E0,4.096129E1,2.877832E1,1.7351686E0,5.7851486E0,1.8245549E0,2.2921442E1,6.3045856E1,4.7784733E1,1.8067508E0,5.109912E0,3.547079E0,1.0091945E1,9.729911E0,1.2958663E0,5.7436657E0,3.9062695E1,1.0166301E1,1.3022817E0,4.158187E1,1.1258569E1,1.0609613E1,3.35931E1,8.456343E0,2.294967E0,4.7286563E0,2.591283E1,1.5048456E1,1.53575945E1,1.3420726E1],"tree_param":{"num_deleted":"0","num_feature":"4","num_nodes":"57","size_leaf_vector":"1"}},{"base_weights":[-5.7261763E-3,4.893905E-2,-2.3634802E-1,-4.9409505E-2,1.673414E-1,-3.3907774E-1,2.12643E-1,2.5217924E-1,-1.8402924E-1,-1.2440454E-1,2.6451695E-1,-5.146431E-1,-1.7817509E-1,-4.9837135E-2,3.594004E-1,7.529257E-1,1.5165816E-1,-1.7442955E-2,-3.4996036E-1,-4.8856214E-1,8.067104E-2,7.432543E-1,2.3236711E-1,-1.1900511E-1,-5.8244552E-2,-7.889289E-2,-4.6844265E-1,4.946335E-1,-2.284689E-2,1.12160586E-1,2.7434042E-2,-2.9629692E-2,2.0958338E-2,-5.9433755E-2,3.1620525E-3,2.727532E-3,-4.2229746E-2,-5.847316E-2,-1.4750886E-2,3.1065604E-2,-2.1289103E-2,1.0695221E-1,5.3581814E-3,-8.612972E-3,2.598975E-2,-3.240341E-2,2.2412268E-2,5.001376E-3,-6.272817E-2,-6.61998E-2,1.9545844E-2,6.492285E-2,1.690275E-2],"categories":[],"categories_nodes":[],"categories_segments":[],"categories_sizes":[],"default_left":[0,0,0,0,0,0,0,0,0,0,0,0,0,0,0,0,0,0,0,0,0,0,0,0,0,0,0,0,0,0,0,0,0,0,0,0,0,0,0,0,0,0,0,0,0,0,0,0,0,0,0,0,0],"id":10,"left_children":[1,3,5,7,9,11,13,15,17,19,21,23,25,-1,27,29,31,33,35,37,39,41,43,45,-1,47,49,51,-1,-1,-1,-1,-1,-1,-1,-1,-1,-1,-1,-1,-1,-1,-1,-1,-1,-1,-1,-1,-1,-1,-1,-1,-1],"loss_changes":[5.429187E0,4.0631485E0,3.8780556E0,7.8005214E0,4.5187593E0,1.8161163E0,1.846434E0,2.873915E0,3.659906E0,3.0426474E0,1.6590614E0,7.828369E-1,1.0226661E0,0E0,1.2121557E0,1.3989253E0,1.3774318E0,1.9218284E0,1.8232012E0,3.9358687E-1,1.8610213E0,1.5256033E0,1.0130186E0,4.8800075E-1,0E0,2.0531626E0,1.3075683E0,4.7196388E-1,0E0,0E0,0E0,0E0,0E0,0E0,0E0,0E0,0E0,0E0,0E0,0E0,0E0,0E0,0E0,0E0,0E0,0E0,0E0,0E0,0E0,0E0,0E0,0E0,0E0],"parents":[2147483647,0,0,1,1,2,2,3,3,4,4,5,5,6,6,7,7,8,8,9,9,10,10,11,11,12,12,14,14,15,15,16,16,17,17,18,18,19,19,20,20,21,21,22,22,23,23,25,25,26,26,27,27],"right_children":[2,4,6,8,10,12,14,16,18,20,22,24,26,-1,28,30,32,34,36,38,40,42,44,46,-1,48,50,52,-1,-1,-1,-1,-1,-1,-1,-1,-1,-1,-1,-1,-1,-1,-1,-1,-1,-1,-1,-1,-1,-1,-1,-1,-1],"split_conditions":[2.3129857E2,1.940199E2,4.353967E0,2.162018E0,2.1046782E0,3.1080304E2,1.5302963E2,1.5673506E2,2.799216E2,2.2047023E2,1.9591357E2,2.3398613E2,3.5619042E0,-4.9837135E-2,2.4688779E2,3.1792987E2,1.1030784E0,2.4151566E0,2.644766E0,1.8479762E0,2.1492104E2,3.4152124E2,1.987854E2,2.3297418E2,-5.8244552E-2,2.4848412E2,2.4498E2,4.7349977E0,-2.284689E-2,1.12160586E-1,2.7434042E-2,-2.9629692E-2,2.0958338E-2,-5.9433755E-2,3.1620525E-3,2.727532E-3,-4.2229746E-2,-5.847316E-2,-1.4750886E-2,3.1065604E-2,-2.1289103E-2,1.0695221E-1,5.3581814E-3,-8.612972E-3,2.598975E-2,-3.240341E-2,2.2412268E-2,5.001376E-3,-6.272817E-2,-6.61998E-2,1.9545844E-2,6.492285E-2,1.690275E-2],"split_indices":[0,0,1,1,1,3,3,0,3,3,0,0,1,0,0,3,1,1,1,1,0,3,0,0,0,0,0,1,0,0,0,0,0,0,0,0,0,0,0,0,0,0,0,0,0,0,0,0,0,0,0,0,0],"split_type":[0,0,0,0,0,0,0,0,0,0,0,0,0,0,0,0,0,0,0,0,0,0,0,0,0,0,0,0,0,0,0,0,0,0,0,0,0,0,0,0,0,0,0,0,0,0,0,0,0,0,0,0,0],"sum_hessian":[4.2873126E2,3.4721683E2,8.151441E1,1.8998897E2,1.5722787E2,6.653575E1,1.49786625E1,5.8363617E1,1.3162535E2,3.9214798E1,1.1801307E2,3.0766785E1,3.5768967E1,2.1528053E0,1.2825857E1,8.672296E0,4.9691322E1,6.623448E1,6.539088E1,1.3629759E1,2.558504E1,6.0345955E0,1.1197848E2,4.9043436E0,2.586244E1,2.7600405E1,8.168563E0,1.055613E1,2.2697268E0,4.139685E0,4.5326104E0,5.2186427E0,4.447268E1,4.3204494E0,6.191403E1,1.0621746E1,5.476913E1,1.007449E1,3.5552697E0,1.4313333E1,1.1271707E1,3.722704E0,2.3118916E0,8.739805E0,1.0323867E2,3.1047873E0,1.7995563E0,2.3083174E1,4.5172315E0,6.326876E0,1.8416868E0,6.48378E0,4.0723505E0],"tree_param":{"num_deleted":"0","num_feature":"4","num_nodes":"53","size_leaf_vector":"1"}},{"base_weights":[2.0084472E-2,3.434129E-1,-4.5451862E-1,-7.5456165E-2,6.324353E-1,-6.14314E-1,-2.2602345E-1,-2.6267794E-1,2.0607354E-1,1.3451098E-1,7.4515337E-1,-6.319493E-2,-2.9111465E-2,1.968642E-1,-3.7830886E-1,-7.7851884E-2,-4.626338E-1,4.1998717E-1,-4.001713E-1,7.0956534E-1,-1.1958673E-2,9.930041E-2,5.956666E-1,4.4836026E-2,-4.349712E-2,-4.8357554E-2,3.0683437E-1,-4.825818E-1,-9.820782E-2,-1.48468455E-2,5.284648E-2,-5.4807413E-2,3.0465353E-2,8.074601E-3,8.572536E-2,-5.184413E-2,-5.641891E-3,9.7307704E-2,-5.91555E-3,-2.205482E-2,2.8546775E-2,4.549327E-2,8.91462E-2,5.3558946E-3,5.449733E-2,-3.4031857E-2,-5.822254E-2,3.74316E-2,-4.3659244E-2],"categories":[],"categories_nodes":[],"categories_segments":[],"categories_sizes":[],"default_left":[0,0,0,0,0,0,0,0,0,0,0,0,0,0,0,0,0,0,0,0,0,0,0,0,0,0,0,0,0,0,0,0,0,0,0,0,0,0,0,0,0,0,0,0,0,0,0,0,0],"id":11,"left_children":[1,3,5,7,9,11,13,15,17,19,21,-1,23,25,27,29,31,33,35,37,39,-1,41,-1,-1,-1,43,45,47,-1,-1,-1,-1,-1,-1,-1,-1,-1,-1,-1,-1,-1,-1,-1,-1,-1,-1,-1,-1],"loss_changes":[6.3890427E1,3.0023748E1,6.02182E0,5.429778E0,8.128788E0,1.0002899E0,4.6481094E0,2.2439837E0,5.523371E0,2.3908455E0,3.8299026E0,0E0,9.57744E-1,1.6046212E0,1.4876771E0,1.5025998E0,2.096415E0,4.531118E0,4.2945254E-1,1.2240176E0,1.5225309E0,0E0,2.7972393E0,0E0,0E0,0E0,1.0181986E0,3.4116745E-1,2.643957E0,0E0,0E0,0E0,0E0,0E0,0E0,0E0,0E0,0E0,0E0,0E0,0E0,0E0,0E0,0E0,0E0,0E0,0E0,0E0,0E0],"parents":[2147483647,0,0,1,1,2,2,3,3,4,4,5,5,6,6,7,7,8,8,9,9,10,10,12,12,13,13,14,14,15,15,16,16,17,17,18,18,19,19,20,20,22,22,26,26,27,27,28,28],"right_children":[2,4,6,8,10,12,14,16,18,20,22,-1,24,26,28,30,32,34,36,38,40,-1,42,-1,-1,-1,44,46,48,-1,-1,-1,-1,-1,-1,-1,-1,-1,-1,-1,-1,-1,-1,-1,-1,-1,-1,-1,-1],"split_conditions":[2.0495296E2,2.670668E0,3.3534088E0,6.2269175E-1,2.730842E-1,9.7003555E-1,2.1635374E2,1.7697496E2,1.8969232E2,1.6274887E2,1.7005247E2,-6.319493E-2,2.2709122E2,2.5830126E-1,6.817666E-1,5.0327694E-1,2.5353556E0,2.004677E0,2.1975822E0,2.1349913E-1,1.9853413E-1,9.930041E-2,4.3481646E0,4.4836026E-2,-4.349712E-2,-4.8357554E-2,4.08805E0,3.9895526E-1,4.034861E0,-1.48468455E-2,5.284648E-2,-5.4807413E-2,3.0465353E-2,8.074601E-3,8.572536E-2,-5.184413E-2,-5.641891E-3,9.7307704E-2,-5.91555E-3,-2.205482E-2,2.8546775E-2,4.549327E-2,8.91462E-2,5.3558946E-3,5.449733E-2,-3.4031857E-2,-5.822254E-2,3.74316E-2,-4.3659244E-2],"split_indices":[0,1,1,2,2,2,0,0,0,0,0,0,0,2,2,2,1,1,1,2,2,0,1,0,0,0,1,2,1,0,0,0,0,0,0,0,0,0,0,0,0,0,0,0,0,0,0,0,0],"split_type":[0,0,0,0,0,0,0,0,0,0,0,0,0,0,0,0,0,0,0,0,0,0,0,0,0,0,0,0,0,0,0,0,0,0,0,0,0,0,0,0,0,0,0,0,0,0,0,0,0],"sum_hessian":[4.1433548E2,2.4660774E2,1.6772775E2,1.00988266E2,1.4561948E2,9.770817E1,7.001958E1,6.0693245E1,4.0295017E1,2.7284655E1,1.1833482E2,9.477229E1,2.9358788E0,1.8461193E1,5.1558384E1,3.2261856E1,2.843139E1,3.0012377E1,1.0282641E1,4.75837E0,2.2526285E1,4.239714E1,7.593768E1,1.300819E0,1.6350597E0,2.0958436E0,1.636535E1,3.704485E1,1.4513534E1,2.9572708E1,2.6891472E0,2.5839737E1,2.5916536E0,1.7567656E1,1.2444722E1,7.272361E0,3.0102806E0,3.3456628E0,1.4127072E0,1.3392446E1,9.13384E0,5.3175682E1,2.2762001E1,8.524221E0,7.841129E0,1.707783E1,1.996702E1,6.0120535E0,8.50148E0],"tree_param":{"num_deleted":"0","num_feature":"4","num_nodes":"49","size_leaf_vector":"1"}},{"base_weights":[8.206971E-3,-2.8233764E-1,5.221681E-1,-2.34944E-2,-4.9195963E-1,6.538158E-1,5.1200833E-2,2.871768E-1,-2.8872108E-1,-6.3592546E-2,-3.6612153E-1,7.447844E-1,1.4028211E-1,4.433494E-1,-2.488956E-1,-9.029076E-3,5.6467795E-1,-4.4297147E-1,-9.947714E-2,-1.0291735E-1,-4.6513823E-1,9.4276726E-1,6.437176E-1,4.086957E-1,-2.9526532E-1,7.4433625E-1,2.1085742E-1,-5.255199E-1,-2.1554122E-2,-1.19365165E-2,6.79831E-2,8.853905E-2,4.203744E-2,-4.8501194E-2,1.6062101E-2,1.4362077E-2,-2.7034203E-2,1.9436933E-2,-5.2917954E-2,-9.254832E-3,-5.2066635E-2,1.03850976E-1,6.870696E-2,2.2214027E-2,7.160911E-2,1.8983938E-2,7.658488E-2,-5.664831E-2,1.8060063E-4,8.559231E-4,9.407417E-2,-4.471464E-2,3.6738005E-2,2.637404E-3,-6.2148746E-2,-3.3564206E-2,3.1368766E-2],"categories":[],"categories_nodes":[],"categories_segments":[],"categories_sizes":[],"default_left":[0,0,0,0,0,0,0,0,0,0,0,0,0,0,0,0,0,0,0,0,0,0,0,0,0,0,0,0,0,0,0,0,0,0,0,0,0,0,0,0,0,0,0,0,0,0,0,0,0,0,0,0,0,0,0,0,0],"id":12,"left_children":[1,3,5,7,9,11,13,15,17,-1,19,21,23,25,27,29,31,33,35,37,39,41,43,45,47,49,51,53,55,-1,-1,-1,-1,-1,-1,-1,-1,-1,-1,-1,-1,-1,-1,-1,-1,-1,-1,-1,-1,-1,-1,-1,-1,-1,-1,-1,-1],"loss_changes":[6.2654232E1,1.4533377E1,9.361137E0,1.0053059E1,2.449566E0,5.4235992E0,4.133498E0,4.626815E0,1.875895E0,0E0,2.072586E0,1.3999863E0,2.346552E0,9.052887E-1,1.2468582E0,2.223089E0,9.720421E-1,9.90067E-1,1.3192236E0,3.0840669E0,1.1691189E0,6.3583374E-2,1.9630356E0,8.0818915E-1,6.327194E-1,8.908272E-1,1.1900411E0,4.921317E-1,1.3713952E0,0E0,0E0,0E0,0E0,0E0,0E0,0E0,0E0,0E0,0E0,0E0,0E0,0E0,0E0,0E0,0E0,0E0,0E0,0E0,0E0,0E0,0E0,0E0,0E0,0E0,0E0,0E0,0E0],"parents":[2147483647,0,0,1,1,2,2,3,3,4,4,5,5,6,6,7,7,8,8,10,10,11,11,12,12,13,13,14,14,15,15,16,16,17,17,18,18,19,19,20,20,21,21,22,22,23,23,24,24,25,25,26,26,27,27,28,28],"right_children":[2,4,6,8,10,12,14,16,18,-1,20,22,24,26,28,30,32,34,36,38,40,42,44,46,48,50,52,54,56,-1,-1,-1,-1,-1,-1,-1,-1,-1,-1,-1,-1,-1,-1,-1,-1,-1,-1,-1,-1,-1,-1,-1,-1,-1,-1,-1,-1],"split_conditions":[2.1635374E2,2.670668E0,4.147903E2,2.697488E2,1.7954448E2,4.3481646E0,2.801017E0,1.810362E2,1.8420818E2,-6.3592546E-2,3.2921689E0,1.999607E2,2.9299722E2,1.9368135E0,2.3398613E2,2.5256352E2,1.5259565E0,4.7347156E2,1.9547398E2,3.0540714E2,1.6149973E2,2.9513373E0,2.2161507E2,2.3783864E2,4.5052776E0,2.2643727E2,2.075414E0,4.3005396E2,3.9159243E0,-1.19365165E-2,6.79831E-2,8.853905E-2,4.203744E-2,-4.8501194E-2,1.6062101E-2,1.4362077E-2,-2.7034203E-2,1.9436933E-2,-5.2917954E-2,-9.254832E-3,-5.2066635E-2,1.03850976E-1,6.870696E-2,2.2214027E-2,7.160911E-2,1.8983938E-2,7.658488E-2,-5.664831E-2,1.8060063E-4,8.559231E-4,9.407417E-2,-4.471464E-2,3.6738005E-2,2.637404E-3,-6.2148746E-2,-3.3564206E-2,3.1368766E-2],"split_indices":[0,1,3,3,0,1,1,0,0,0,1,3,3,1,0,3,1,3,0,3,3,1,0,3,1,0,1,3,1,0,0,0,0,0,0,0,0,0,0,0,0,0,0,0,0,0,0,0,0,0,0,0,0,0,0,0,0],"split_type":[0,0,0,0,0,0,0,0,0,0,0,0,0,0,0,0,0,0,0,0,0,0,0,0,0,0,0,0,0,0,0,0,0,0,0,0,0,0,0,0,0,0,0,0,0,0,0,0,0,0,0,0,0,0,0,0,0],"sum_hessian":[4.175855E2,2.6706378E2,1.5052173E2,1.1999942E2,1.4706436E2,1.1733522E2,3.318651E1,5.5226974E1,6.4772446E1,6.6701096E1,8.036326E1,9.929546E1,1.8039757E1,1.4179807E1,1.9006702E1,2.718116E1,2.8045815E1,3.4946907E1,2.9825535E1,2.2525585E1,5.7837673E1,3.0743309E1,6.8552155E1,1.1199514E1,6.8402424E0,5.220164E0,8.959643E0,7.982354E0,1.1024348E1,2.4141146E1,3.0400145E0,7.1094847E0,2.093633E1,3.2855E1,2.0919065E0,1.2376428E1,1.7449108E1,1.3590924E1,8.934661E0,7.847594E0,4.999008E1,2.0140501E1,1.0602807E1,1.0640482E1,5.7911674E1,7.893853E0,3.3056614E0,3.1016402E0,3.7386022E0,1.3197343E0,3.9004297E0,1.3649197E0,7.5947237E0,1.289844E0,6.69251E0,5.6911335E0,5.3332148E0],"tree_param":{"num_deleted":"0","num_feature":"4","num_nodes":"57","size_leaf_vector":"1"}},{"base_weights":[1.8331652E-4,6.542119E-2,-1.2176834E-1,-3.0021518E-1,9.647412E-2,4.7030288E-1,-1.4705217E-1,-3.8679644E-1,-4.7683842E-2,-3.777931E-1,1.15592286E-1,-1.0633173E-2,7.136186E-1,-7.796385E-2,-3.9382285E-1,-1.7508194E-1,-6.34928E-2,-3.3027488E-1,2.856906E-1,-6.1646845E-2,-4.83113E-2,-5.607866E-2,1.2826036E-1,9.052968E-2,2.5590857E-2,-1.4393307E-1,2.5652727E-1,-5.032117E-1,4.0934548E-2,1.5808288E-2,-4.4798058E-2,-4.933631E-2,1.0769909E-3,-4.179177E-2,8.603047E-2,4.415458E-2,-5.1766645E-2,2.065935E-2,3.5698381E-3,-6.011765E-3,-4.2872738E-2,8.714725E-2,1.1481991E-2,-2.8255254E-2,-6.138842E-2,5.89036E-2,-2.4836427E-2],"categories":[],"categories_nodes":[],"categories_segments":[],"categories_sizes":[],"default_left":[0,0,0,0,0,0,0,0,0,0,0,0,0,0,0,0,0,0,0,0,0,0,0,0,0,0,0,0,0,0,0,0,0,0,0,0,0,0,0,0,0,0,0,0,0,0,0],"id":13,"left_children":[1,3,5,7,9,11,13,15,17,19,21,-1,23,25,27,29,-1,31,33,-1,35,-1,37,-1,-1,39,41,43,45,-1,-1,-1,-1,-1,-1,-1,-1,-1,-1,-1,-1,-1,-1,-1,-1,-1,-1],"loss_changes":[3.394204E0,3.184736E0,2.294963E0,4.6258652E-1,2.3733857E0,9.6367586E-1,2.4134088E0,7.4212E-1,7.3099285E-1,7.715887E-1,2.1947567E0,0E0,1.701119E-1,2.5358713E0,1.5001235E0,9.9323225E-1,0E0,2.3453873E-1,1.8297784E0,0E0,1.4622892E0,0E0,1.7618589E0,0E0,0E0,2.2474532E0,1.5569643E0,4.3539238E-1,1.2846024E0,0E0,0E0,0E0,0E0,0E0,0E0,0E0,0E0,0E0,0E0,0E0,0E0,0E0,0E0,0E0,0E0,0E0,0E0],"parents":[2147483647,0,0,1,1,2,2,3,3,4,4,5,5,6,6,7,7,8,8,9,9,10,10,12,12,13,13,14,14,15,15,17,17,18,18,20,20,22,22,25,25,26,26,27,27,28,28],"right_children":[2,4,6,8,10,12,14,16,18,20,22,-1,24,26,28,30,-1,32,34,-1,36,-1,38,-1,-1,40,42,44,46,-1,-1,-1,-1,-1,-1,-1,-1,-1,-1,-1,-1,-1,-1,-1,-1,-1,-1],"split_conditions":[6.8101496E-1,1.4437808E-1,1.15823006E2,3.2454233E2,1.1570777E0,7.2744966E-1,4.034861E0,2.5256352E2,1.9368135E0,3.6844522E-1,1.1242725E2,-1.0633173E-2,3.5619042E0,4.2716168E2,9.529176E-1,1.2160454E-1,-6.34928E-2,4.2236234E2,1.2506701E-1,-6.1646845E-2,5.393599E-1,-5.607866E-2,3.14643E2,9.052968E-2,2.5590857E-2,9.2862225E-1,1.5763152E0,7.8599083E-1,9.7003555E-1,1.5808288E-2,-4.4798058E-2,-4.933631E-2,1.0769909E-3,-4.179177E-2,8.603047E-2,4.415458E-2,-5.1766645E-2,2.065935E-2,3.5698381E-3,-6.011765E-3,-4.2872738E-2,8.714725E-2,1.1481991E-2,-2.8255254E-2,-6.138842E-2,5.89036E-2,-2.4836427E-2],"split_indices":[2,2,3,3,1,2,1,3,1,2,3,0,1,3,2,2,0,3,2,0,2,0,3,0,0,2,1,2,2,0,0,0,0,0,0,0,0,0,0,0,0,0,0,0,0,0,0],"split_type":[0,0,0,0,0,0,0,0,0,0,0,0,0,0,0,0,0,0,0,0,0,0,0,0,0,0,0,0,0,0,0,0,0,0,0,0,0,0,0,0,0,0,0,0,0,0,0],"sum_hessian":[4.2462775E2,2.769417E2,1.4768604E2,2.1000542E1,2.5594116E2,5.327646E0,1.423584E2,1.5242813E1,5.757729E0,9.190483E0,2.4675069E2,1.7480129E0,3.5796328E0,1.1224822E2,3.0110167E1,9.145313E0,6.0974994E0,3.1212451E0,2.636484E0,4.8245635E0,4.3659196E0,3.7410164E0,2.4300967E2,1.8337978E0,1.745835E0,9.423303E1,1.8015192E1,2.3931368E1,6.1787977E0,4.307403E0,4.8379107E0,1.809376E0,1.3118691E0,1.3077983E0,1.3286856E0,2.1652937E0,2.200626E0,1.3095413E2,1.12055534E2,7.37418E1,2.0491238E1,2.4094546E0,1.5605737E1,9.18044E0,1.4750928E1,1.7766674E0,4.4021306E0],"tree_param":{"num_deleted":"0","num_feature":"4","num_nodes":"47","size_leaf_vector":"1"}},{"base_weights":[9.8700095E-3,3.5574484E-1,-4.0878904E-1,1.3375747E-1,6.0639036E-1,-1.7786777E-1,-5.3042614E-1,2.5759183E-2,4.809247E-1,4.7506726E-1,8.7607795E-1,-3.8865957E-1,1.305934E-1,-6.0785043E-1,-2.1500546E-1,-2.1670258E-1,1.80143E-1,5.7821715E-1,6.2600575E-2,6.786303E-1,2.9497504E-1,9.429014E-1,1.20208025E-1,-4.4670287E-1,4.0976733E-2,-3.1221935E-1,2.62157E-1,-6.520639E-1,-5.275763E-1,-6.1879188E-2,1.5707077E-2,4.2890143E-2,-3.4195185E-2,7.398202E-2,9.436755E-3,-3.6132217E-3,6.1866622E-2,3.859147E-2,-5.0563116E-2,7.366994E-2,-2.006728E-2,-8.391514E-3,3.9901603E-2,4.0648695E-2,9.830049E-2,-4.678488E-2,6.355126E-2,-5.9134614E-2,-3.2475088E-2,-4.676419E-3,-5.097406E-2,6.89742E-2,4.300233E-3,-6.673344E-2,-2.9792113E-2,3.85884E-3,-5.4712325E-2,1.8421484E-2,-5.403605E-2],"categories":[],"categories_nodes":[],"categories_segments":[],"categories_sizes":[],"default_left":[0,0,0,0,0,0,0,0,0,0,0,0,0,0,0,0,0,0,0,0,0,0,0,0,0,0,0,0,0,0,0,0,0,0,0,0,0,0,0,0,0,0,0,0,0,0,0,0,0,0,0,0,0,0,0,0,0,0,0],"id":14,"left_children":[1,3,5,7,9,11,13,15,17,19,21,23,25,27,29,31,33,35,37,39,41,43,45,47,-1,49,51,53,55,-1,57,-1,-1,-1,-1,-1,-1,-1,-1,-1,-1,-1,-1,-1,-1,-1,-1,-1,-1,-1,-1,-1,-1,-1,-1,-1,-1,-1,-1],"loss_changes":[6.017234E1,1.25790825E1,5.1863956E0,4.559936E0,3.358715E0,4.3660736E0,2.8642082E0,3.5603242E0,1.139163E0,2.50778E0,1.5898743E0,2.02182E0,1.6950562E0,3.5133362E-3,2.4054775E0,3.1425943E0,2.7155712E0,6.015587E-1,1.4022611E0,1.8790369E0,1.6481953E0,2.637558E-1,1.4746108E0,4.688568E-1,0E0,3.3266014E-1,2.0217407E0,1.197319E-1,4.6395016E-1,0E0,1.7244409E0,0E0,0E0,0E0,0E0,0E0,0E0,0E0,0E0,0E0,0E0,0E0,0E0,0E0,0E0,0E0,0E0,0E0,0E0,0E0,0E0,0E0,0E0,0E0,0E0,0E0,0E0,0E0,0E0],"parents":[2147483647,0,0,1,1,2,2,3,3,4,4,5,5,6,6,7,7,8,8,9,9,10,10,11,11,12,12,13,13,14,14,15,15,16,16,17,17,18,18,19,19,20,20,21,21,22,22,23,23,25,25,26,26,27,27,28,28,30,30],"right_children":[2,4,6,8,10,12,14,16,18,20,22,24,26,28,30,32,34,36,38,40,42,44,46,48,-1,50,52,54,56,-1,58,-1,-1,-1,-1,-1,-1,-1,-1,-1,-1,-1,-1,-1,-1,-1,-1,-1,-1,-1,-1,-1,-1,-1,-1,-1,-1,-1,-1],"split_conditions":[2.002637E2,5.668731E-1,2.1635374E2,4.0254242E2,3.645865E2,3.1080304E2,4.359993E2,2.730842E-1,4.7347156E2,1.7120448E2,4.9059586E2,9.147691E-1,4.5998472E-1,3.0315897E2,3.757739E-1,1.3120544E-1,2.9858595E-1,1.3120544E-1,1.8475716E2,3.584188E2,1.6465508E2,6.279615E-1,6.8101496E-1,4.1102162E-1,4.0976733E-2,2.0614845E2,6.2269175E-1,9.7003555E-1,3.0399402E2,-6.1879188E-2,2.4109271E2,4.2890143E-2,-3.4195185E-2,7.398202E-2,9.436755E-3,-3.6132217E-3,6.1866622E-2,3.859147E-2,-5.0563116E-2,7.366994E-2,-2.006728E-2,-8.391514E-3,3.9901603E-2,4.0648695E-2,9.830049E-2,-4.678488E-2,6.355126E-2,-5.9134614E-2,-3.2475088E-2,-4.676419E-3,-5.097406E-2,6.89742E-2,4.300233E-3,-6.673344E-2,-2.9792113E-2,3.85884E-3,-5.4712325E-2,1.8421484E-2,-5.403605E-2],"split_indices":[0,2,0,3,3,3,3,2,3,0,3,2,2,3,2,2,2,2,0,3,3,2,2,2,0,0,2,2,3,0,0,0,0,0,0,0,0,0,0,0,0,0,0,0,0,0,0,0,0,0,0,0,0,0,0,0,0,0,0],"split_type":[0,0,0,0,0,0,0,0,0,0,0,0,0,0,0,0,0,0,0,0,0,0,0,0,0,0,0,0,0,0,0,0,0,0,0,0,0,0,0,0,0,0,0,0,0,0,0,0,0,0,0,0,0,0,0,0,0,0,0],"sum_hessian":[4.1354016E2,2.2653703E2,1.8700311E2,1.209499E2,1.0558714E2,6.536796E1,1.2163515E2,9.307113E1,2.7878773E1,7.286662E1,3.272052E1,3.8677254E1,2.6690704E1,9.691816E1,2.471699E1,3.6050186E1,5.702094E1,2.2308186E1,5.5705876E0,3.290499E1,3.9961628E1,2.983545E1,2.8850713E0,3.646675E1,2.2105045E0,5.799105E0,2.08916E1,5.7903194E1,3.901497E1,8.375806E0,1.6341183E1,5.463566E0,3.0586622E1,6.564311E0,5.0456627E1,1.3846424E0,2.0923542E1,3.7549407E0,1.8156471E0,3.1018696E1,1.886295E0,8.650866E0,3.1310762E1,2.850036E0,2.6985413E1,1.3904295E0,1.4946419E0,1.4920738E1,2.1546011E1,3.001734E0,2.7973711E0,6.351712E0,1.4539887E1,5.4661835E1,3.2413604E0,1.2695342E0,3.7745434E1,1.3054067E1,3.2871168E0],"tree_param":{"num_deleted":"0","num_feature":"4","num_nodes":"59","size_leaf_vector":"1"}},{"base_weights":[-2.6556525E-2,-3.0754519E-1,4.3071947E-1,-1.6227496E-1,-4.8382512E-1,6.4896756E-1,1.8970826E-1,-2.9748774E-1,9.509898E-2,-3.391045E-1,-5.7876706E-1,7.8540355E-1,4.137819E-1,8.7391335E-1,2.676243E-2,-3.2819012E-1,5.5264395E-1,6.5282077E-1,-4.370049E-2,-5.2516544E-1,8.7760255E-2,-1.2549238E-2,-5.9043604E-1,5.6004804E-1,9.619625E-1,7.171876E-1,1.261874E-1,1.3207601E-2,9.7462654E-2,1.8724091E-1,-2.2704114E-1,-1.9682603E-2,-5.3921588E-2,4.101117E-3,8.0657E-2,9.415667E-2,3.6388423E-2,-1.0989464E-2,2.583304E-2,-5.4525543E-2,-1.4267454E-2,-1.5352926E-2,6.437003E-2,-6.019041E-2,-2.3758596E-2,2.9370276E-2,6.975729E-2,9.916326E-2,2.660794E-2,8.769949E-2,4.9062125E-2,-1.16221E-2,5.00427E-2,-3.2636765E-2,3.0926302E-2,-4.5581397E-2,-5.3481553E-3],"categories":[],"categories_nodes":[],"categories_segments":[],"categories_sizes":[],"default_left":[0,0,0,0,0,0,0,0,0,0,0,0,0,0,0,0,0,0,0,0,0,0,0,0,0,0,0,0,0,0,0,0,0,0,0,0,0,0,0,0,0,0,0,0,0,0,0,0,0,0,0,0,0,0,0,0,0],"id":15,"left_children":[1,3,5,7,9,11,13,15,17,19,21,23,25,27,29,31,33,35,37,39,41,-1,43,45,47,49,51,-1,-1,53,55,-1,-1,-1,-1,-1,-1,-1,-1,-1,-1,-1,-1,-1,-1,-1,-1,-1,-1,-1,-1,-1,-1,-1,-1,-1,-1],"loss_changes":[5.3389698E1,6.510845E0,8.196846E0,4.9897327E0,1.3940811E0,2.3252563E0,8.514375E0,2.627263E0,3.8883216E0,3.8795986E0,2.880993E-1,1.4967155E0,2.7398448E0,9.6942043E-1,2.6036816E0,2.4184246E0,4.3967557E-1,4.9156713E-1,8.453295E-1,1.8161106E-1,2.1792252E0,0E0,1.2604523E-1,7.05956E-1,2.9961014E-1,1.3350105E-1,1.678915E0,0E0,0E0,2.5496075E0,9.607265E-1,0E0,0E0,0E0,0E0,0E0,0E0,0E0,0E0,0E0,0E0,0E0,0E0,0E0,0E0,0E0,0E0,0E0,0E0,0E0,0E0,0E0,0E0,0E0,0E0,0E0,0E0],"parents":[2147483647,0,0,1,1,2,2,3,3,4,4,5,5,6,6,7,7,8,8,9,9,10,10,11,11,12,12,13,13,14,14,15,15,16,16,17,17,18,18,19,19,20,20,22,22,23,23,24,24,25,25,26,26,29,29,30,30],"right_children":[2,4,6,8,10,12,14,16,18,20,22,24,26,28,30,32,34,36,38,40,42,-1,44,46,48,50,52,-1,-1,54,56,-1,-1,-1,-1,-1,-1,-1,-1,-1,-1,-1,-1,-1,-1,-1,-1,-1,-1,-1,-1,-1,-1,-1,-1,-1,-1],"split_conditions":[2.1492104E2,2.9618176E2,2.9826157E2,1.916154E2,4.262518E-1,6.535628E-1,2.5656733E-1,2.8876102E2,2.3194747E-1,1.8797858E2,1.5183907E2,2.2746338E2,2.0128047E2,2.2900304E2,4.2424155E2,2.1242955E2,1.6424956E2,1.4613712E-1,2.683586E2,3.950956E-1,4.359993E2,-1.2549238E-2,2.13743E2,1.8006169E2,2.4966368E2,8.177626E-1,8.868766E-1,1.3207601E-2,9.7462654E-2,3.1344678E2,2.3129857E2,-1.9682603E-2,-5.3921588E-2,4.101117E-3,8.0657E-2,9.415667E-2,3.6388423E-2,-1.0989464E-2,2.583304E-2,-5.4525543E-2,-1.4267454E-2,-1.5352926E-2,6.437003E-2,-6.019041E-2,-2.3758596E-2,2.9370276E-2,6.975729E-2,9.916326E-2,2.660794E-2,8.769949E-2,4.9062125E-2,-1.16221E-2,5.00427E-2,-3.2636765E-2,3.0926302E-2,-4.5581397E-2,-5.3481553E-3],"split_indices":[0,3,3,0,2,2,2,3,2,0,0,0,3,0,3,3,0,2,3,2,3,0,0,3,0,2,2,0,0,3,0,0,0,0,0,0,0,0,0,0,0,0,0,0,0,0,0,0,0,0,0,0,0,0,0,0,0],"split_type":[0,0,0,0,0,0,0,0,0,0,0,0,0,0,0,0,0,0,0,0,0,0,0,0,0,0,0,0,0,0,0,0,0,0,0,0,0,0,0,0,0,0,0,0,0,0,0,0,0,0,0,0,0,0,0,0,0],"sum_hessian":[4.134875E2,2.563141E2,1.571734E2,1.4156915E2,1.1474493E2,8.159354E1,7.557986E1,9.270843E1,4.886073E1,4.7267082E1,6.7477844E1,5.0156963E1,3.1436579E1,1.3698214E1,6.188164E1,9.0069534E1,2.6388953E0,8.998752E0,3.9861977E1,3.2758213E1,1.4508869E1,1.9885416E0,6.54893E1,2.386644E1,2.6290522E1,1.4570881E1,1.6865696E1,1.9136891E0,1.1784525E1,3.8071514E1,2.381013E1,5.6703907E1,3.3365627E1,1.2605453E0,1.3783501E0,3.3711224E0,5.6276293E0,3.321796E1,6.6440177E0,3.0719181E1,2.0390332E0,1.06223755E1,3.8864932E0,6.2744205E1,2.7450967E0,9.19468E0,1.4671761E1,2.4807806E1,1.4827155E0,6.860829E0,7.7100525E0,1.0654101E1,6.2115955E0,6.9871087E0,3.1084404E1,9.569753E0,1.4240376E1],"tree_param":{"num_deleted":"0","num_feature":"4","num_nodes":"57","size_leaf_vector":"1"}},{"base_weights":[1.0301937E-2,-1.7143887E-1,5.053785E-2,1.049496E-1,-3.5271043E-1,1.1232035E-1,-1.5579155E-1,6.56762E-1,-3.1941262E-1,7.5812265E-2,-4.714197E-1,1.01503305E-1,9.267731E-2,-4.2253888E-1,4.18016E-2,8.5733646E-1,1.7094406E-1,2.7631456E-3,-4.1044608E-1,4.4343805E-1,-3.9763606E-1,-2.8094006E-1,-5.8310855E-2,-3.8397234E-2,1.3993222E-1,-4.6529424E-1,1.4545808E-2,-5.2568827E-2,4.7153747E-1,1.0087472E-1,-2.41746E-3,-2.3523048E-2,6.3348286E-2,-4.6868328E-2,4.011481E-2,5.0752996E-3,-5.7338096E-2,4.2630406E-3,9.9005215E-2,2.4678248E-3,-5.410871E-2,-3.697322E-2,2.6072493E-2,1.4054245E-2,-4.016768E-2,-1.7322062E-3,2.4534853E-2,-5.3071946E-2,-8.2174735E-4,-2.3024363E-2,2.7966613E-2,8.2602106E-2,1.2765441E-3],"categories":[],"categories_nodes":[],"categories_segments":[],"categories_sizes":[],"default_left":[0,0,0,0,0,0,0,0,0,0,0,0,0,0,0,0,0,0,0,0,0,0,0,0,0,0,0,0,0,0,0,0,0,0,0,0,0,0,0,0,0,0,0,0,0,0,0,0,0,0,0,0,0],"id":16,"left_children":[1,3,5,7,9,11,13,15,17,19,21,23,-1,25,27,29,31,33,35,37,39,41,-1,43,45,47,-1,49,51,-1,-1,-1,-1,-1,-1,-1,-1,-1,-1,-1,-1,-1,-1,-1,-1,-1,-1,-1,-1,-1,-1,-1,-1],"loss_changes":[3.0623555E0,3.84083E0,4.3857775E0,7.4320593E0,2.379815E0,2.2343373E0,4.201773E0,1.191812E0,5.321995E-1,2.066088E0,6.067972E-1,1.4136822E0,0E0,8.9022493E-1,1.9110972E0,1.288661E0,1.1377089E0,1.1238116E0,1.0905159E0,1.4003805E0,3.3279455E-1,8.3315074E-1,0E0,3.7769287E0,3.414465E0,9.4473124E-1,0E0,2.368776E0,1.3677921E0,0E0,0E0,0E0,0E0,0E0,0E0,0E0,0E0,0E0,0E0,0E0,0E0,0E0,0E0,0E0,0E0,0E0,0E0,0E0,0E0,0E0,0E0,0E0,0E0],"parents":[2147483647,0,0,1,1,2,2,3,3,4,4,5,5,6,6,7,7,8,8,9,9,10,10,11,11,13,13,14,14,15,15,16,16,17,17,18,18,19,19,20,20,21,21,23,23,24,24,25,25,27,27,28,28],"right_children":[2,4,6,8,10,12,14,16,18,20,22,24,-1,26,28,30,32,34,36,38,40,42,-1,44,46,48,-1,50,52,-1,-1,-1,-1,-1,-1,-1,-1,-1,-1,-1,-1,-1,-1,-1,-1,-1,-1,-1,-1,-1,-1,-1,-1],"split_conditions":[1.681825E2,2.551947E0,2.3098744E2,1.5712567E2,1.8006169E2,4.9251885E0,2.9721204E2,2.162018E0,1.8514003E2,4.0644636E0,3.4042966E0,1.8172655E0,9.267731E-2,2.4877855E2,4.353967E0,3.609056E2,2.6111423E2,1.421382E0,1.3049569E0,3.67168E0,1.5256421E2,1.6635239E2,-5.8310855E-2,2.1018816E2,1.940199E2,4.5759587E0,1.4545808E-2,2.4362123E2,3.9906073E2,1.0087472E-1,-2.41746E-3,-2.3523048E-2,6.3348286E-2,-4.6868328E-2,4.011481E-2,5.0752996E-3,-5.7338096E-2,4.2630406E-3,9.9005215E-2,2.4678248E-3,-5.410871E-2,-3.697322E-2,2.6072493E-2,1.4054245E-2,-4.016768E-2,-1.7322062E-3,2.4534853E-2,-5.3071946E-2,-8.2174735E-4,-2.3024363E-2,2.7966613E-2,8.2602106E-2,1.2765441E-3],"split_indices":[0,1,0,0,3,1,3,1,3,1,1,1,0,0,1,3,3,1,1,1,0,0,0,0,0,1,0,0,3,0,0,0,0,0,0,0,0,0,0,0,0,0,0,0,0,0,0,0,0,0,0,0,0],"split_type":[0,0,0,0,0,0,0,0,0,0,0,0,0,0,0,0,0,0,0,0,0,0,0,0,0,0,0,0,0,0,0,0,0,0,0,0,0,0,0,0,0,0,0,0,0,0,0,0,0,0,0,0,0],"sum_hessian":[4.165984E2,7.492233E1,3.4167606E2,2.9842262E1,4.508007E1,2.632924E2,7.838366E1,1.2734943E1,1.7107317E1,9.857463E0,3.5222607E1,2.6095123E2,2.3411605E0,3.2870552E1,4.5513103E1,8.472334E0,4.2626104E0,3.9825068E0,1.3124811E1,5.584537E0,4.272926E0,1.4318507E1,2.09041E1,5.623358E1,2.0471765E2,3.0737625E1,2.132928E0,3.8037666E1,7.475438E0,7.1072364E0,1.3650972E0,2.5312505E0,1.73136E0,1.7431797E0,2.239327E0,3.606071E0,9.51874E0,3.8439386E0,1.7405982E0,1.2933427E0,2.979583E0,1.2574634E1,1.7438738E0,3.808653E1,1.8147057E1,8.249371E1,1.2222394E2,2.6747866E1,3.9897606E0,2.4983704E1,1.3053963E1,3.7654493E0,3.7099888E0],"tree_param":{"num_deleted":"0","num_feature":"4","num_nodes":"53","size_leaf_vector":"1"}},{"base_weights":[-1.6647128E-2,-2.6945126E-1,1.9404909E-1,-4.040028E-1,-1.13522045E-1,3.0794874E-2,4.363736E-1,-5.1873535E-1,-2.584406E-1,-2.8654733E-1,4.228808E-2,-8.914136E-2,3.2240832E-1,3.2331753E-1,6.2940115E-1,-1.10277854E-1,-5.5960506E-1,-5.101088E-1,-1.9465877E-1,-4.8305768E-1,-3.1268377E-2,6.5139875E-2,-4.2606346E-2,-2.2397786E-1,2.8122666E-1,6.157223E-1,2.1229903E-1,3.993604E-1,-1.0863001E-1,7.867582E-1,2.4283762E-1,2.3330947E-2,-4.788113E-2,-5.8859408E-2,-2.1632394E-2,5.199906E-3,-6.10443E-2,2.527692E-2,-2.802584E-2,-2.976192E-3,-6.72252E-2,-3.603233E-2,1.5575886E-2,7.3628954E-4,7.627722E-2,2.0713018E-2,-2.8082857E-2,5.018271E-2,-2.0531742E-2,9.790701E-2,3.498307E-2,-3.624899E-2,3.0599121E-2,-9.0071615E-3,4.654049E-2,6.501614E-2,-3.2844167E-2,4.539013E-4,8.341478E-2,-1.0052509E-2,6.2265873E-2],"categories":[],"categories_nodes":[],"categories_segments":[],"categories_sizes":[],"default_left":[0,0,0,0,0,0,0,0,0,0,0,0,0,0,0,0,0,0,0,0,0,0,0,0,0,0,0,0,0,0,0,0,0,0,0,0,0,0,0,0,0,0,0,0,0,0,0,0,0,0,0,0,0,0,0,0,0,0,0,0,0],"id":17,"left_children":[1,3,5,7,9,11,13,15,17,19,21,23,25,27,29,31,33,35,37,39,41,43,-1,45,47,49,51,53,55,57,59,-1,-1,-1,-1,-1,-1,-1,-1,-1,-1,-1,-1,-1,-1,-1,-1,-1,-1,-1,-1,-1,-1,-1,-1,-1,-1,-1,-1,-1,-1],"loss_changes":[2.1839005E1,3.8639002E0,8.83521E0,1.5300407E0,2.37669E0,4.740442E0,1.7596436E0,8.5191154E-1,6.3769555E-1,2.0761483E0,5.3101605E-1,4.8691216E0,1.1442356E0,1.9743261E0,1.7658424E0,8.997477E-1,3.6532497E-1,5.2050805E-1,1.535687E0,1.9941678E0,1.2378345E0,1.8364954E0,0E0,1.8010027E0,2.907535E0,6.4759445E-1,1.7387965E0,1.6646223E0,1.8124293E0,8.27198E-1,1.4650257E0,0E0,0E0,0E0,0E0,0E0,0E0,0E0,0E0,0E0,0E0,0E0,0E0,0E0,0E0,0E0,0E0,0E0,0E0,0E0,0E0,0E0,0E0,0E0,0E0,0E0,0E0,0E0,0E0,0E0,0E0],"parents":[2147483647,0,0,1,1,2,2,3,3,4,4,5,5,6,6,7,7,8,8,9,9,10,10,11,11,12,12,13,13,14,14,15,15,16,16,17,17,18,18,19,19,20,20,21,21,23,23,24,24,25,25,26,26,27,27,28,28,29,29,30,30],"right_children":[2,4,6,8,10,12,14,16,18,20,22,24,26,28,30,32,34,36,38,40,42,44,-1,46,48,50,52,54,56,58,60,-1,-1,-1,-1,-1,-1,-1,-1,-1,-1,-1,-1,-1,-1,-1,-1,-1,-1,-1,-1,-1,-1,-1,-1,-1,-1,-1,-1,-1,-1],"split_conditions":[2.8667724E0,3.1080304E2,3.240464E2,2.087784E0,4.786629E-1,7.6170564E-1,6.817666E-1,1.1570777E0,2.5145072E-1,4.17065E2,9.846522E-1,4.388243E0,7.9493684E-1,6.2269175E-1,8.9868206E-1,2.0500412E2,8.9868206E-1,2.180163E0,3.6844522E-1,3.3165192E2,1.465434E0,9.653956E-1,-4.2606346E-2,3.1426263E0,2.4256189E2,3.3534088E0,1.3335162E2,3.2406728E0,3.343113E2,2.9702764E0,9.7003555E-1,2.3330947E-2,-4.788113E-2,-5.8859408E-2,-2.1632394E-2,5.199906E-3,-6.10443E-2,2.527692E-2,-2.802584E-2,-2.976192E-3,-6.72252E-2,-3.603233E-2,1.5575886E-2,7.3628954E-4,7.627722E-2,2.0713018E-2,-2.8082857E-2,5.018271E-2,-2.0531742E-2,9.790701E-2,3.498307E-2,-3.624899E-2,3.0599121E-2,-9.0071615E-3,4.654049E-2,6.501614E-2,-3.2844167E-2,4.539013E-4,8.341478E-2,-1.0052509E-2,6.2265873E-2],"split_indices":[1,3,3,1,2,2,2,1,2,3,2,1,2,2,2,3,2,1,2,3,1,2,0,1,3,1,3,1,3,1,2,0,0,0,0,0,0,0,0,0,0,0,0,0,0,0,0,0,0,0,0,0,0,0,0,0,0,0,0,0,0],"split_type":[0,0,0,0,0,0,0,0,0,0,0,0,0,0,0,0,0,0,0,0,0,0,0,0,0,0,0,0,0,0,0,0,0,0,0,0,0,0,0,0,0,0,0,0,0,0,0,0,0,0,0,0,0,0,0,0,0,0,0,0,0],"sum_hessian":[4.0802597E2,1.8535211E2,2.2267384E2,9.864247E1,8.670964E1,1.3371622E2,8.8957634E1,5.372924E1,4.491323E1,4.068753E1,4.6022106E1,9.523982E1,3.8476395E1,5.7786892E1,3.1170744E1,5.2234664E0,4.8505775E1,7.66626E0,3.724697E1,2.2485909E1,1.8201624E1,4.4701927E1,1.3201787E0,7.0110565E1,2.5129257E1,9.248339E0,2.9228054E1,4.920072E1,8.586171E0,2.1417244E1,9.753501E0,2.8931131E0,2.330353E0,4.406962E1,4.436155E0,1.2341053E0,6.432154E0,5.667919E0,3.1579052E1,6.9622283E0,1.552368E1,6.2604437E0,1.194118E1,4.221619E1,2.485735E0,7.8604097E0,6.2250153E1,1.7268333E1,7.860922E0,2.7745833E0,6.473756E0,3.694408E0,2.5533646E1,5.806565E0,4.3394157E1,1.4888476E0,7.0973234E0,1.2860069E0,2.0131237E1,5.508809E0,4.244692E0],"tree_param":{"num_deleted":"0","num_feature":"4","num_nodes":"61","size_leaf_vector":"1"}},{"base_weights":[1.1907018E-2,-3.1375876E-1,3.371218E-1,-9.02354E-2,-4.541973E-1,5.870061E-1,1.3742757E-1,-2.1663205E-1,2.2917946E-1,-5.9348536E-1,-2.69417E-1,9.078302E-2,5.007455E-1,-1.8860777E-1,3.4524938E-1,-2.5057635E-1,4.7556616E-2,9.1243076E-1,-1.3829026E-2,-2.8956404E-1,-6.2477607E-2,1.748246E-1,-3.432323E-1,3.6399555E-1,6.985539E-1,1.4259511E-2,-3.6596546E-1,7.956239E-1,2.313967E-1,-3.1024732E-3,-3.3392396E-2,1.0148605E-1,3.3291616E-2,-1.7065112E-2,1.4562525E-2,-4.8094187E-2,4.3085963E-2,-1.5414767E-2,4.832081E-2,5.261917E-3,-4.297043E-2,2.6632797E-3,5.29534E-2,7.940523E-2,2.1358619E-2,1.8746989E-2,-3.6314636E-2,-4.527422E-2,-7.0321597E-3,9.061456E-2,-1.0216329E-2,2.645789E-2,-5.175538E-2],"categories":[],"categories_nodes":[],"categories_segments":[],"categories_sizes":[],"default_left":[0,0,0,0,0,0,0,0,0,0,0,0,0,0,0,0,0,0,0,0,0,0,0,0,0,0,0,0,0,0,0,0,0,0,0,0,0,0,0,0,0,0,0,0,0,0,0,0,0,0,0,0,0],"id":18,"left_children":[1,3,5,7,9,11,13,15,17,19,21,-1,23,25,27,29,-1,31,33,35,-1,37,39,41,43,45,47,49,51,-1,-1,-1,-1,-1,-1,-1,-1,-1,-1,-1,-1,-1,-1,-1,-1,-1,-1,-1,-1,-1,-1,-1,-1],"loss_changes":[4.4150078E1,6.497944E0,1.032638E1,3.345059E0,3.1262894E0,2.100624E0,8.007975E0,1.5053501E0,3.9357219E0,5.0351906E-1,1.9196134E0,0E0,1.7744007E0,1.6703963E0,3.5049543E0,1.0307348E0,0E0,3.0988693E-2,4.8531562E-1,1.3904402E0,0E0,9.614379E-1,1.6987443E0,2.5788345E0,1.1997366E0,1.5422044E0,6.02618E-1,1.4923668E0,1.5991509E0,0E0,0E0,0E0,0E0,0E0,0E0,0E0,0E0,0E0,0E0,0E0,0E0,0E0,0E0,0E0,0E0,0E0,0E0,0E0,0E0,0E0,0E0,0E0,0E0],"parents":[2147483647,0,0,1,1,2,2,3,3,4,4,5,5,6,6,7,7,8,8,9,9,10,10,12,12,13,13,14,14,15,15,17,17,18,18,19,19,21,21,22,22,23,23,24,24,25,25,26,26,27,27,28,28],"right_children":[2,4,6,8,10,12,14,16,18,20,22,-1,24,26,28,30,-1,32,34,36,-1,38,40,42,44,46,48,50,52,-1,-1,-1,-1,-1,-1,-1,-1,-1,-1,-1,-1,-1,-1,-1,-1,-1,-1,-1,-1,-1,-1,-1,-1],"split_conditions":[2.0190598E2,2.3860967E0,2.644766E0,1.8630823E2,1.7954448E2,2.5830126E-1,2.2259557E2,2.3011806E0,3.2708326E-1,1.6213325E-1,1.8269316E2,9.078302E-2,2.3129857E2,4.6970993E-1,2.8359514E-1,1.3138232E0,4.7556616E-2,1.9486937E2,1.6828334E0,1.574151E-1,-6.2477607E-2,1.823203E2,2.730842E-1,4.996932E-1,8.344511E-1,4.2141504E0,2.1635374E2,4.823675E0,2.4868869E2,-3.1024732E-3,-3.3392396E-2,1.0148605E-1,3.3291616E-2,-1.7065112E-2,1.4562525E-2,-4.8094187E-2,4.3085963E-2,-1.5414767E-2,4.832081E-2,5.261917E-3,-4.297043E-2,2.6632797E-3,5.29534E-2,7.940523E-2,2.1358619E-2,1.8746989E-2,-3.6314636E-2,-4.527422E-2,-7.0321597E-3,9.061456E-2,-1.0216329E-2,2.645789E-2,-5.175538E-2],"split_indices":[0,1,1,0,0,2,0,1,2,2,0,0,0,2,2,1,0,0,1,2,0,0,2,2,2,1,0,1,0,0,0,0,0,0,0,0,0,0,0,0,0,0,0,0,0,0,0,0,0,0,0,0,0],"split_type":[0,0,0,0,0,0,0,0,0,0,0,0,0,0,0,0,0,0,0,0,0,0,0,0,0,0,0,0,0,0,0,0,0,0,0,0,0,0,0,0,0,0,0,0,0,0,0,0,0,0,0,0,0],"sum_hessian":[4.148602E2,2.0730397E2,2.0755623E2,8.06242E1,1.2667976E2,9.1331024E1,1.162252E2,5.7996147E1,2.2628054E1,7.097027E1,5.5709496E1,1.7334724E1,7.39963E1,4.5280552E1,7.094465E1,5.589323E1,2.1029158E0,5.213857E0,1.7414196E1,7.581962E0,6.3388306E1,7.742787E0,4.7966705E1,4.5429726E1,2.856657E1,2.1550274E1,2.3730278E1,1.3107251E1,5.7837395E1,1.5757517E1,4.0135715E1,3.7923338E0,1.4215235E0,8.74416E0,8.670035E0,6.2532325E0,1.3287296E0,3.988328E0,3.754459E0,8.6697645E0,3.9296944E1,1.5336088E1,3.009364E1,2.3334316E1,5.232254E0,1.5116038E1,6.4342365E0,1.7934736E1,5.7955413E0,1.1662263E1,1.4449881E0,5.6002922E1,1.8344717E0],"tree_param":{"num_deleted":"0","num_feature":"4","num_nodes":"53","size_leaf_vector":"1"}},{"base_weights":[9.9419E-3,4.6420753E-2,-2.6124412E-1,6.634101E-2,-3.2587376E-1,-6.211085E-1,-3.1770825E-2,1.1118477E-1,-9.1900714E-2,-5.329938E-1,-7.851455E-2,-6.6258416E-2,-2.5205004E-1,-3.6599946E-1,2.2567151E-1,-6.1518017E-2,1.6389245E-1,-2.853418E-1,9.584747E-2,-6.1369073E-2,2.3833371E-3,6.1209183E-2,-3.771971E-1,2.7336432E-3,-4.1837897E-2,-5.403669E-1,3.8623136E-2,1.3798003E-1,7.483616E-2,8.4668834E-4,-5.127066E-2,1.3453647E-2,4.2818725E-2,-3.8515702E-2,6.710111E-2,-4.914729E-2,1.9976329E-2,-5.9949316E-2,1.1661581E-2,-6.0515095E-2,-2.4025653E-2,3.7303116E-2,-1.8229414E-2],"categories":[],"categories_nodes":[],"categories_segments":[],"categories_sizes":[],"default_left":[0,0,0,0,0,0,0,0,0,0,0,0,0,0,0,0,0,0,0,0,0,0,0,0,0,0,0,0,0,0,0,0,0,0,0,0,0,0,0,0,0,0,0],"id":19,"left_children":[1,3,5,7,9,11,13,15,17,19,21,-1,23,25,27,29,31,33,35,-1,-1,-1,37,-1,-1,39,-1,41,-1,-1,-1,-1,-1,-1,-1,-1,-1,-1,-1,-1,-1,-1,-1],"loss_changes":[4.173593E0,2.777765E0,4.111541E0,2.519376E0,9.3385243E-1,1.3034344E-1,2.8017986E0,2.52216E0,2.8828828E0,4.7261882E-1,2.2630403E0,0E0,1.7763752E-1,2.0623095E0,7.4333876E-1,2.0649147E0,1.5849886E0,3.9791348E0,2.5790243E0,0E0,0E0,0E0,8.9278054E-1,0E0,0E0,8.576608E-2,0E0,1.3509998E0,0E0,0E0,0E0,0E0,0E0,0E0,0E0,0E0,0E0,0E0,0E0,0E0,0E0,0E0,0E0],"parents":[2147483647,0,0,1,1,2,2,3,3,4,4,5,5,6,6,7,7,8,8,9,9,10,10,12,12,13,13,14,14,15,15,16,16,17,17,18,18,22,22,25,25,27,27],"right_children":[2,4,6,8,10,12,14,16,18,20,22,-1,24,26,28,30,32,34,36,-1,-1,-1,38,-1,-1,40,-1,42,-1,-1,-1,-1,-1,-1,-1,-1,-1,-1,-1,-1,-1,-1,-1],"split_conditions":[2.37389E2,9.623243E-1,4.3483922E-1,4.0254242E2,1.9126176E2,4.704772E2,3.0067966E2,1.7133261E2,1.9486937E2,9.923795E-1,2.0052524E2,-6.6258416E-2,2.4402303E2,9.364631E-1,8.9868206E-1,2.2798755E2,3.770291E2,4.9343893E2,4.147903E2,-6.1369073E-2,2.3833371E-3,6.1209183E-2,2.3098744E2,2.7336432E-3,-4.1837897E-2,8.493506E-1,3.8623136E-2,6.7640257E-1,7.483616E-2,8.4668834E-4,-5.127066E-2,1.3453647E-2,4.2818725E-2,-3.8515702E-2,6.710111E-2,-4.914729E-2,1.9976329E-2,-5.9949316E-2,1.1661581E-2,-6.0515095E-2,-2.4025653E-2,3.7303116E-2,-1.8229414E-2],"split_indices":[0,2,2,3,0,3,3,3,0,2,0,0,0,2,2,0,3,3,3,0,0,0,0,0,0,2,0,2,0,0,0,0,0,0,0,0,0,0,0,0,0,0,0],"split_type":[0,0,0,0,0,0,0,0,0,0,0,0,0,0,0,0,0,0,0,0,0,0,0,0,0,0,0,0,0,0,0,0,0,0,0,0,0,0,0,0,0,0,0],"sum_hessian":[4.1966647E2,3.706385E2,4.9027977E1,3.5259415E2,1.804435E1,1.8425728E1,3.060225E1,2.7496875E2,7.762539E1,9.192502E0,8.851847E0,1.584922E1,2.576508E0,1.3131889E1,1.747036E1,6.425679E1,2.1071196E2,3.7977016E1,3.964837E1,7.939733E0,1.2527692E0,2.3557148E0,6.496132E0,1.2733244E0,1.3031838E0,1.0889375E1,2.2425144E0,1.604284E1,1.4275202E0,5.647765E1,7.7791443E0,1.9100548E2,1.9706486E1,3.4928745E1,3.0482724E0,5.3997974E0,3.424857E1,4.3320136E0,2.1641185E0,8.120086E0,2.7692888E0,9.157426E0,6.8854136E0],"tree_param":{"num_deleted":"0","num_feature":"4","num_nodes":"43","size_leaf_vector":"1"}},{"base_weights":[-4.575542E-3,2.4655534E-1,-3.9554408E-1,-2.2187519E-1,4.5275575E-1,-5.653521E-1,-1.736039E-1,-2.6973417E-1,1.8750666E-1,-3.7234675E-2,5.154694E-1,-2.6070052E-1,-5.804646E-1,2.0771526E-1,-3.4329027E-1,1.7879227E-2,-3.1109154E-1,-4.3094616E-2,3.5475582E-1,8.401697E-2,-1.9571519E-1,4.093397E-1,8.508004E-1,-5.3132027E-2,2.8944908E-2,-5.8862608E-2,-2.0467825E-1,-5.2660484E-2,3.522123E-1,-1.5014288E-1,-4.867574E-1,-2.7772624E-2,8.2017384E-2,9.409629E-3,-3.5415836E-2,6.289694E-2,1.0839449E-2,-5.555698E-2,1.1002768E-2,5.9971698E-2,1.5955353E-2,9.233271E-2,3.7431244E-2,-3.768863E-2,5.8977487E-3,-2.0876797E-3,6.894298E-2,-3.1241093E-2,2.9026616E-2,-5.3229835E-2,-1.7053891E-2],"categories":[],"categories_nodes":[],"categories_segments":[],"categories_sizes":[],"default_left":[0,0,0,0,0,0,0,0,0,0,0,0,0,0,0,0,0,0,0,0,0,0,0,0,0,0,0,0,0,0,0,0,0,0,0,0,0,0,0,0,0,0,0,0,0,0,0,0,0,0,0],"id":20,"left_children":[1,3,5,7,9,11,13,15,17,19,21,23,25,27,29,31,33,-1,35,-1,37,39,41,-1,-1,-1,43,-1,45,47,49,-1,-1,-1,-1,-1,-1,-1,-1,-1,-1,-1,-1,-1,-1,-1,-1,-1,-1,-1,-1],"loss_changes":[4.126486E1,2.4819504E1,6.096527E0,1.5962675E0,5.489704E0,2.7537346E-1,4.7747946E0,8.506279E-1,1.0680202E0,3.102936E0,5.270874E0,1.0761771E0,1.4782524E-1,2.6268911E0,1.3313475E0,2.5702736E0,1.1181479E0,0E0,4.393412E-1,0E0,2.1197095E0,5.699236E0,9.341011E-1,0E0,0E0,0E0,1.7626852E-1,0E0,2.5086198E0,1.737741E0,3.2159758E-1,0E0,0E0,0E0,0E0,0E0,0E0,0E0,0E0,0E0,0E0,0E0,0E0,0E0,0E0,0E0,0E0,0E0,0E0,0E0,0E0],"parents":[2147483647,0,0,1,1,2,2,3,3,4,4,5,5,6,6,7,7,8,8,9,9,10,10,11,11,12,12,13,13,14,14,15,15,16,16,18,18,20,20,21,21,22,22,26,26,28,28,29,29,30,30],"right_children":[2,4,6,8,10,12,14,16,18,20,22,24,26,28,30,32,34,-1,36,-1,38,40,42,-1,-1,-1,44,-1,46,48,50,-1,-1,-1,-1,-1,-1,-1,-1,-1,-1,-1,-1,-1,-1,-1,-1,-1,-1,-1,-1],"split_conditions":[2.0495296E2,2.162018E0,3.3534088E0,8.9868206E-1,2.1191126E-1,2.0707784E2,2.1635374E2,1.1570777E0,1.2846332E0,1.5673506E2,4.3481646E0,7.210422E-1,9.7003555E-1,2.8748384E-1,4.034861E0,5.436613E-1,1.4437808E-1,-4.3094616E-2,9.235014E-1,8.401697E-2,3.848056E0,1.7912291E2,2.0083606E2,-5.3132027E-2,2.8944908E-2,-5.8862608E-2,2.4032764E0,-5.2660484E-2,4.08805E0,3.8937912E0,8.493506E-1,-2.7772624E-2,8.2017384E-2,9.409629E-3,-3.5415836E-2,6.289694E-2,1.0839449E-2,-5.555698E-2,1.1002768E-2,5.9971698E-2,1.5955353E-2,9.233271E-2,3.7431244E-2,-3.768863E-2,5.8977487E-3,-2.0876797E-3,6.894298E-2,-3.1241093E-2,2.9026616E-2,-5.3229835E-2,-1.7053891E-2],"split_indices":[0,1,1,2,2,0,0,1,1,0,1,2,2,2,1,2,2,0,2,0,1,0,0,0,0,0,1,0,1,1,2,0,0,0,0,0,0,0,0,0,0,0,0,0,0,0,0,0,0,0,0],"split_type":[0,0,0,0,0,0,0,0,0,0,0,0,0,0,0,0,0,0,0,0,0,0,0,0,0,0,0,0,0,0,0,0,0,0,0,0,0,0,0,0,0,0,0,0,0,0,0,0,0,0,0],"sum_hessian":[4.1828644E2,2.5491574E2,1.633707E2,7.789156E1,1.7702417E2,9.167907E1,7.169163E1,7.0044136E1,7.847424E0,2.0132473E1,1.5689171E2,5.19545E0,8.648362E1,2.2008966E1,4.9682655E1,8.877143E0,6.1166996E1,1.3348293E0,6.5125947E0,2.422002E0,1.7710472E1,1.2086088E2,3.6030823E1,3.5053744E0,1.6900754E0,8.409093E1,2.3926952E0,3.1839652E0,1.8825003E1,2.2047289E1,2.7635368E1,6.9647985E0,1.9123449E0,5.762879E0,5.5404118E1,2.347104E0,4.1654906E0,7.7599807E0,9.950491E0,6.779174E1,5.306914E1,3.0457134E1,5.573689E0,1.1875666E0,1.2051287E0,9.382512E0,9.44249E0,1.632354E1,5.723749E0,2.355912E1,4.076248E0],"tree_param":{"num_deleted":"0","num_feature":"4","num_nodes":"51","size_leaf_vector":"1"}},{"base_weights":[-3.5623802E-4,-2.571868E-1,4.3773854E-1,-1.22056E-1,-4.3543684E-1,5.3132564E-1,8.8369675E-2,-2.5393984E-1,5.198245E-2,-3.2935962E-1,-6.0843414E-1,6.2329376E-1,3.9272362E-1,7.858124E-1,-1.4185636E-1,-2.7874383E-1,5.6943234E-2,8.652064E-2,-7.385299E-3,-4.701977E-1,-1.20126955E-1,8.053399E-3,-6.309204E-2,6.4840174E-1,1.4654781E-1,3.1291315E-1,8.133262E-2,2.728932E-2,8.533068E-2,6.0447577E-2,-5.305503E-1,-1.6557712E-2,-4.367685E-2,3.821216E-2,-7.6938504E-3,-5.1841903E-2,-1.701596E-2,1.8783424E-2,-2.9392097E-2,4.9610816E-2,7.3930934E-2,-1.930157E-2,4.281485E-2,9.080105E-2,2.4929559E-2,-4.786341E-2,1.4906722E-2,-6.2046614E-2,-1.1714553E-3],"categories":[],"categories_nodes":[],"categories_segments":[],"categories_sizes":[],"default_left":[0,0,0,0,0,0,0,0,0,0,0,0,0,0,0,0,0,0,0,0,0,0,0,0,0,0,0,0,0,0,0,0,0,0,0,0,0,0,0,0,0,0,0,0,0,0,0,0,0],"id":21,"left_children":[1,3,5,7,9,11,13,15,17,19,21,23,25,27,29,31,-1,-1,33,35,37,-1,-1,39,41,43,-1,-1,-1,45,47,-1,-1,-1,-1,-1,-1,-1,-1,-1,-1,-1,-1,-1,-1,-1,-1,-1,-1],"loss_changes":[4.6321587E1,6.198307E0,4.9278793E0,3.4334648E0,1.8461761E0,1.2823792E0,5.4658213E0,1.893506E0,3.1479106E0,2.044962E0,6.8924904E-1,7.4666214E-1,1.4403939E0,5.8930397E-2,2.070065E0,1.4143076E0,0E0,0E0,1.6991596E0,5.234976E-1,1.662645E0,0E0,0E0,5.539684E-1,5.42571E-1,1.4418116E0,0E0,0E0,0E0,9.285598E-1,4.1138387E-1,0E0,0E0,0E0,0E0,0E0,0E0,0E0,0E0,0E0,0E0,0E0,0E0,0E0,0E0,0E0,0E0,0E0,0E0],"parents":[2147483647,0,0,1,1,2,2,3,3,4,4,5,5,6,6,7,7,8,8,9,9,10,10,11,11,12,12,13,13,14,14,15,15,18,18,19,19,20,20,23,23,24,24,25,25,29,29,30,30],"right_children":[2,4,6,8,10,12,14,16,18,20,22,24,26,28,30,32,-1,-1,34,36,38,-1,-1,40,42,44,-1,-1,-1,46,48,-1,-1,-1,-1,-1,-1,-1,-1,-1,-1,-1,-1,-1,-1,-1,-1,-1,-1],"split_conditions":[2.1675934E2,2.9618176E2,4.147903E2,1.916154E2,6.685502E-1,2.8876102E2,2.5145072E-1,2.9084393E2,1.4613712E-1,1.8549963E2,1.5183907E2,9.7003555E-1,2.4626485E2,2.2948096E2,4.6830835E2,2.0710973E2,5.6943234E-2,8.652064E-2,1.3431772E2,4.996932E-1,3.150979E-1,8.053399E-3,-6.309204E-2,2.2869034E2,9.86189E-1,2.1936823E2,8.133262E-2,2.728932E-2,8.533068E-2,4.210625E2,2.4402303E2,-1.6557712E-2,-4.367685E-2,3.821216E-2,-7.6938504E-3,-5.1841903E-2,-1.701596E-2,1.8783424E-2,-2.9392097E-2,4.9610816E-2,7.3930934E-2,-1.930157E-2,4.281485E-2,9.080105E-2,2.4929559E-2,-4.786341E-2,1.4906722E-2,-6.2046614E-2,-1.1714553E-3],"split_indices":[0,3,3,0,2,3,2,3,2,0,0,2,0,0,3,3,0,0,3,2,2,0,0,0,2,0,0,0,0,3,0,0,0,0,0,0,0,0,0,0,0,0,0,0,0,0,0,0,0],"split_type":[0,0,0,0,0,0,0,0,0,0,0,0,0,0,0,0,0,0,0,0,0,0,0,0,0,0,0,0,0,0,0,0,0,0,0,0,0,0,0,0,0,0,0,0,0,0,0,0,0],"sum_hessian":[4.096878E2,2.5853568E2,1.5115213E2,1.4801256E2,1.10523125E2,1.1880614E2,3.2345993E1,8.39428E1,6.4069756E1,7.0312965E1,4.0210155E1,6.931549E1,4.9490654E1,7.428625E0,2.491737E1,8.2130104E1,1.8126994E0,3.435557E0,6.0634197E1,4.1279667E1,2.90333E1,1.1892905E0,3.9020863E1,6.550556E1,3.809928E0,4.3063248E1,6.427407E0,1.4503074E0,5.9783177E0,1.6943338E1,7.974031E0,4.9050903E1,3.3079197E1,8.505933E0,5.2128265E1,3.4936867E1,6.342803E0,1.0444669E1,1.858863E1,2.6899416E1,3.8606144E1,1.8698168E0,1.940111E0,2.8770943E0,4.0186153E1,1.7707436E0,1.5172594E1,6.629276E0,1.3447552E0],"tree_param":{"num_deleted":"0","num_feature":"4","num_nodes":"49","size_leaf_vector":"1"}},{"base_weights":[1.2151075E-2,2.9989194E-2,-3.44371E-1,4.654657E-2,-2.6691422E-1,-9.718664E-2,-4.9427366E-1,-3.019453E-1,5.8978423E-2,-5.9318777E-2,-1.0945889E-1,-5.2348793E-2,2.0100522E-1,-6.3247226E-2,1.3908382E-3,2.5882324E-2,-4.105283E-1,-5.2707862E-2,9.4578244E-2,-2.346176E-1,2.001637E-1,5.599023E-1,-4.435743E-2,4.288441E-2,-4.253649E-2,-5.3627234E-2,9.964817E-4,6.545285E-3,-5.365354E-2,7.955379E-2,8.474398E-3,-4.6805814E-2,8.432137E-3,5.25424E-2,-4.121562E-2,1.5196921E-3,7.899032E-2],"categories":[],"categories_nodes":[],"categories_segments":[],"categories_sizes":[],"default_left":[0,0,0,0,0,0,0,0,0,0,0,0,0,0,0,0,0,0,0,0,0,0,0,0,0,0,0,0,0,0,0,0,0,0,0,0,0],"id":22,"left_children":[1,3,5,7,9,11,13,15,17,-1,19,-1,21,-1,23,-1,25,27,29,31,33,35,-1,-1,-1,-1,-1,-1,-1,-1,-1,-1,-1,-1,-1,-1,-1],"loss_changes":[2.6455638E0,1.9568827E0,6.865318E-1,1.6446245E0,1.0160443E0,1.2148008E0,8.294487E-1,9.037503E-1,1.4498786E0,0E0,6.444662E-1,0E0,1.6036699E0,0E0,8.455089E-1,0E0,6.059638E-1,5.0933785E0,1.8346441E0,8.912536E-1,1.2080189E0,5.1484454E-1,0E0,0E0,0E0,0E0,0E0,0E0,0E0,0E0,0E0,0E0,0E0,0E0,0E0,0E0,0E0],"parents":[2147483647,0,0,1,1,2,2,3,3,4,4,5,5,6,6,7,7,8,8,10,10,12,12,14,14,16,16,17,17,18,18,19,19,20,20,21,21],"right_children":[2,4,6,8,10,12,14,16,18,-1,20,-1,22,-1,24,-1,26,28,30,32,34,36,-1,-1,-1,-1,-1,-1,-1,-1,-1,-1,-1,-1,-1,-1,-1],"split_conditions":[9.606627E-1,2.4553346E2,2.4343138E0,1.1440753E0,3.2345873E-1,1.421382E0,2.2948096E2,1.0255162E0,1.7207697E2,-5.9318777E-2,2.4877855E2,-5.2348793E-2,2.0052524E2,-6.3247226E-2,2.4688779E2,2.5882324E-2,2.0567628E2,4.106842E0,1.1925714E0,7.3931634E-1,6.1928344E-1,1.6880247E2,-4.435743E-2,4.288441E-2,-4.253649E-2,-5.3627234E-2,9.964817E-4,6.545285E-3,-5.365354E-2,7.955379E-2,8.474398E-3,-4.6805814E-2,8.432137E-3,5.25424E-2,-4.121562E-2,1.5196921E-3,7.899032E-2],"split_indices":[2,0,1,1,2,1,0,1,0,0,0,0,0,0,0,0,0,1,1,2,2,0,0,0,0,0,0,0,0,0,0,0,0,0,0,0,0],"split_type":[0,0,0,0,0,0,0,0,0,0,0,0,0,0,0,0,0,0,0,0,0,0,0,0,0,0,0,0,0,0,0,0,0,0,0,0,0],"sum_hessian":[4.1336597E2,3.9454147E2,1.8824488E1,3.745E2,2.0041468E1,7.7286086E0,1.1095879E1,1.2097337E1,3.6240268E2,5.6227856E0,1.4418683E1,2.8700233E0,4.8585854E0,8.460858E0,2.6350207E0,1.7379881E0,1.0359349E1,8.747846E1,2.749242E2,1.0440548E1,3.978135E0,3.2052784E0,1.6533071E0,1.3139896E0,1.3210311E0,7.762665E0,2.5966842E0,7.100282E1,1.6475643E1,2.698353E0,2.7222586E2,5.758321E0,4.682227E0,2.6907427E0,1.2873924E0,1.2681122E0,1.9371661E0],"tree_param":{"num_deleted":"0","num_feature":"4","num_nodes":"37","size_leaf_vector":"1"}},{"base_weights":[8.937092E-3,3.1397575E-1,-2.841283E-1,-1.0861375E-1,4.8405E-1,-5.2541196E-1,-6.863376E-2,-4.3744567E-1,2.427097E-1,3.318674E-1,6.516052E-1,-5.41786E-1,1.0092396E-1,-3.1890005E-1,2.0920572E-1,4.8734244E-2,-5.343321E-1,3.2315925E-1,-5.1737048E-2,1.5345784E-1,5.536767E-1,6.809281E-1,-2.305342E-2,-3.998009E-1,-5.859047E-1,5.247245E-2,-3.7219338E-2,-5.2345465E-3,-5.31756E-1,4.6981218E-1,-7.6127544E-2,5.2651625E-2,-4.8604257E-2,-4.1321244E-2,-6.372295E-2,-1.7643353E-2,5.0133556E-2,6.1613776E-2,-2.1736007E-3,1.7969541E-2,7.994663E-2,4.364463E-2,7.243583E-2,-4.2655185E-2,9.630169E-3,-6.078291E-2,-3.23808E-2,-1.8557336E-2,3.8410123E-2,-5.833387E-2,5.0198864E-2,7.270843E-3,5.6285035E-2,-1.6721115E-2,5.4532465E-2],"categories":[],"categories_nodes":[],"categories_segments":[],"categories_sizes":[],"default_left":[0,0,0,0,0,0,0,0,0,0,0,0,0,0,0,0,0,0,0,0,0,0,0,0,0,0,0,0,0,0,0,0,0,0,0,0,0,0,0,0,0,0,0,0,0,0,0,0,0,0,0,0,0,0,0],"id":23,"left_children":[1,3,5,7,9,11,13,15,17,19,21,23,25,27,29,31,33,35,-1,37,39,41,-1,43,45,-1,-1,47,49,51,53,-1,-1,-1,-1,-1,-1,-1,-1,-1,-1,-1,-1,-1,-1,-1,-1,-1,-1,-1,-1,-1,-1,-1,-1],"loss_changes":[3.7164986E1,1.4692194E1,1.098922E1,6.953327E0,3.4918747E0,1.079071E0,7.935026E0,1.4849253E0,1.9586978E0,3.0114117E0,1.920517E0,3.765049E-1,8.745618E-1,3.9984236E0,4.0682006E0,1.8050076E0,5.9584618E-2,2.5015893E0,0E0,3.6406312E0,3.0272884E0,3.8715553E-1,0E0,3.8960123E-1,2.1826935E-1,0E0,0E0,1.8432577E0,2.1960344E0,1.011363E0,1.605167E0,0E0,0E0,0E0,0E0,0E0,0E0,0E0,0E0,0E0,0E0,0E0,0E0,0E0,0E0,0E0,0E0,0E0,0E0,0E0,0E0,0E0,0E0,0E0,0E0],"parents":[2147483647,0,0,1,1,2,2,3,3,4,4,5,5,6,6,7,7,8,8,9,9,10,10,11,11,12,12,13,13,14,14,15,15,16,16,17,17,19,19,20,20,21,21,23,23,24,24,27,27,28,28,29,29,30,30],"right_children":[2,4,6,8,10,12,14,16,18,20,22,24,26,28,30,32,34,36,-1,38,40,42,-1,44,46,-1,-1,48,50,52,54,-1,-1,-1,-1,-1,-1,-1,-1,-1,-1,-1,-1,-1,-1,-1,-1,-1,-1,-1,-1,-1,-1,-1,-1],"split_conditions":[1.940199E2,2.124199E0,2.9513373E0,2.9498712E2,3.0399402E2,4.849352E2,3.1344678E2,1.1570777E0,4.7347156E2,3.7701297E0,4.9343893E2,2.0707784E2,2.216795E0,2.13743E2,2.222267E2,2.212263E2,1.7336078E2,1.2846332E0,-5.1737048E-2,1.6183362E2,1.7133261E2,2.551947E0,-2.305342E-2,2.801017E0,4.6158124E2,5.247245E-2,-3.7219338E-2,4.363635E0,4.914102E0,3.369974E2,4.9059586E2,5.2651625E-2,-4.8604257E-2,-4.1321244E-2,-6.372295E-2,-1.7643353E-2,5.0133556E-2,6.1613776E-2,-2.1736007E-3,1.7969541E-2,7.994663E-2,4.364463E-2,7.243583E-2,-4.2655185E-2,9.630169E-3,-6.078291E-2,-3.23808E-2,-1.8557336E-2,3.8410123E-2,-5.833387E-2,5.0198864E-2,7.270843E-3,5.6285035E-2,-1.6721115E-2,5.4532465E-2],"split_indices":[0,1,1,3,3,3,3,1,3,1,3,0,1,0,0,3,0,1,0,0,3,1,0,1,3,0,0,1,1,3,3,0,0,0,0,0,0,0,0,0,0,0,0,0,0,0,0,0,0,0,0,0,0,0,0],"split_type":[0,0,0,0,0,0,0,0,0,0,0,0,0,0,0,0,0,0,0,0,0,0,0,0,0,0,0,0,0,0,0,0,0,0,0,0,0,0,0,0,0,0,0,0,0,0,0,0,0,0,0,0,0,0,0],"sum_hessian":[4.137351E2,2.0269138E2,2.1104373E2,5.82692E1,1.4442218E2,9.888575E1,1.1215798E2,2.9971409E1,2.829779E1,7.724487E1,6.71773E1,9.649803E1,2.38772E0,5.8929207E1,5.3228775E1,5.0628467E0,2.4908562E1,2.6109142E1,2.1886485E0,4.3748314E1,3.3496563E1,6.523687E1,1.9404265E0,2.5261633E1,7.12364E1,1.2019657E0,1.1857543E0,2.4237423E1,3.4691784E1,2.74819E1,2.5746876E1,2.68207E0,2.3807766E0,1.3745095E1,1.1163466E1,6.8663106E0,1.9242832E1,1.1324327E1,3.2423985E1,1.3970634E1,1.9525928E1,1.150743E1,5.372944E1,2.4102184E1,1.1594486E0,6.452019E1,6.7162147E0,1.6922396E1,7.3150277E0,3.3457973E1,1.2338111E0,5.5547433E0,2.1927156E1,2.3093147E1,2.653729E0],"tree_param":{"num_deleted":"0","num_feature":"4","num_nodes":"55","size_leaf_vector":"1"}},{"base_weights":[6.400419E-3,-2.1852928E-1,3.5701153E-1,1.0944356E-1,-4.258128E-1,6.790685E-1,2.1039423E-1,2.7686527E-1,-1.7711608E-1,-1.3568178E-3,-4.8992968E-1,4.1406336E-1,7.0553416E-1,3.4847656E-1,-1.3091665E-2,-4.3459862E-1,3.5914898E-1,2.2602348E-1,-3.384007E-1,-1.8162581E-1,7.329671E-2,-6.121065E-2,-3.9667863E-1,6.006982E-1,-1.6047549E-2,8.4720664E-2,5.8463794E-1,7.072555E-2,5.8492047E-1,-1.2984645E-1,1.9300583E-1,5.419614E-3,-5.5314478E-2,3.9285276E-2,-5.2517023E-2,-2.837037E-2,4.688105E-2,-6.159615E-2,-1.7951911E-2,1.6351737E-2,-5.101065E-2,-1.753158E-2,-5.1933564E-2,1.874139E-2,7.074209E-2,1.2851733E-2,6.474588E-2,1.9474695E-2,-1.8222991E-2,8.622379E-2,4.723384E-2,-4.9327215E-4,-5.435846E-2,3.482057E-2,-3.3596676E-2],"categories":[],"categories_nodes":[],"categories_segments":[],"categories_sizes":[],"default_left":[0,0,0,0,0,0,0,0,0,0,0,0,0,0,0,0,0,0,0,0,0,0,0,0,0,0,0,0,0,0,0,0,0,0,0,0,0,0,0,0,0,0,0,0,0,0,0,0,0,0,0,0,0,0,0],"id":24,"left_children":[1,3,5,7,9,11,13,15,17,19,21,23,25,27,29,31,33,35,37,39,-1,-1,41,43,-1,-1,45,47,49,51,53,-1,-1,-1,-1,-1,-1,-1,-1,-1,-1,-1,-1,-1,-1,-1,-1,-1,-1,-1,-1,-1,-1,-1,-1],"loss_changes":[3.2017227E1,1.6861511E1,7.348835E0,4.6825857E0,4.1294136E0,5.282402E-2,3.4137144E0,3.7477937E0,2.4319825E0,2.9022303E0,1.2592583E0,8.348397E-1,2.462883E-1,4.445385E0,1.0634571E0,4.247322E-1,1.8616848E0,1.4883051E0,1.0481606E0,2.0784132E0,0E0,0E0,2.016264E0,1.0598791E-1,0E0,0E0,6.7866135E-1,1.0567499E0,7.406225E-1,1.4519203E0,1.4311862E0,0E0,0E0,0E0,0E0,0E0,0E0,0E0,0E0,0E0,0E0,0E0,0E0,0E0,0E0,0E0,0E0,0E0,0E0,0E0,0E0,0E0,0E0,0E0,0E0],"parents":[2147483647,0,0,1,1,2,2,3,3,4,4,5,5,6,6,7,7,8,8,9,9,10,10,11,11,12,12,13,13,14,14,15,15,16,16,17,17,18,18,19,19,22,22,23,23,26,26,27,27,28,28,29,29,30,30],"right_children":[2,4,6,8,10,12,14,16,18,20,22,24,26,28,30,32,34,36,38,40,-1,-1,42,44,-1,-1,46,48,50,52,54,-1,-1,-1,-1,-1,-1,-1,-1,-1,-1,-1,-1,-1,-1,-1,-1,-1,-1,-1,-1,-1,-1,-1,-1],"split_conditions":[2.1492104E2,2.3860967E0,2.1975822E0,6.341152E-1,1.9486123E-1,1.1925714E0,6.6029227E-1,1.5712567E2,1.3682679E0,2.0243903E2,1.7954448E2,7.455357E-1,2.2999161E2,2.3065611E2,2.3779744E2,1.1440753E0,2.1409721E2,1.1570777E0,1.6828334E0,3.7701297E0,7.329671E-2,-6.121065E-2,3.2406728E0,4.786629E-1,-1.6047549E-2,8.4720664E-2,2.3129857E2,4.2141504E0,2.4068527E-1,2.3655072E2,8.902302E-1,5.419614E-3,-5.5314478E-2,3.9285276E-2,-5.2517023E-2,-2.837037E-2,4.688105E-2,-6.159615E-2,-1.7951911E-2,1.6351737E-2,-5.101065E-2,-1.753158E-2,-5.1933564E-2,1.874139E-2,7.074209E-2,1.2851733E-2,6.474588E-2,1.9474695E-2,-1.8222991E-2,8.622379E-2,4.723384E-2,-4.9327215E-4,-5.435846E-2,3.482057E-2,-3.3596676E-2],"split_indices":[0,1,1,2,2,1,2,0,1,0,0,2,0,0,0,1,0,1,1,1,0,0,1,2,0,0,0,1,2,0,2,0,0,0,0,0,0,0,0,0,0,0,0,0,0,0,0,0,0,0,0,0,0,0,0],"split_type":[0,0,0,0,0,0,0,0,0,0,0,0,0,0,0,0,0,0,0,0,0,0,0,0,0,0,0,0,0,0,0,0,0,0,0,0,0,0,0,0,0,0,0,0,0,0,0,0,0,0,0,0,0,0,0],"sum_hessian":[4.039969E2,2.4633853E2,1.5765836E2,9.5579926E1,1.507586E2,4.818483E1,1.0947353E2,6.035279E1,3.522713E1,1.9918505E1,1.308401E2,5.8865986E0,4.229823E1,6.7320076E1,4.2153458E1,5.8125973E0,5.4540195E1,9.95148E0,2.5275652E1,1.6596819E1,3.3216863E0,5.422753E1,7.661257E1,4.4088764E0,1.4777226E0,1.6709476E1,2.5588753E1,3.1553389E1,3.5766685E1,2.7145456E1,1.5007999E1,1.2405074E0,4.57209E0,5.307319E1,1.4670057E0,3.1563172E0,6.795162E0,8.154012E0,1.7121641E1,8.338033E0,8.258785E0,2.8181635E1,4.8430943E1,1.470488E0,2.9383883E0,3.4663727E0,2.212238E1,2.1327066E1,1.0226322E1,8.404816E0,2.7361872E1,2.1627665E1,5.5177927E0,1.1867748E1,3.1402504E0],"tree_param":{"num_deleted":"0","num_feature":"4","num_nodes":"55","size_leaf_vector":"1"}},{"base_weights":[1.1587599E-2,-1.3972849E-1,4.4469453E-2,-8.846093E-2,-5.8530923E-2,7.809736E-2,-1.3818482E-1,1.6429174E-1,-1.866093E-1,1.320183E-1,-8.460395E-2,-1.9879761E-1,4.820695E-1,-1.808264E-1,7.70024E-1,-2.6421729E-3,-3.3917174E-1,1.07358895E-1,5.1251304E-1,-2.9392847E-1,3.6237516E-2,-3.4265375E-1,7.400977E-2,8.8491276E-2,-4.1483313E-2,-3.7573274E-2,3.0598347E-3,1.0109623E-1,2.4840714E-2,-1.1413948E-2,3.4130108E-2,-2.0425621E-2,-5.4002434E-2,1.5436533E-2,-1.0903411E-2,7.350236E-2,3.0118188E-2,-1.2106577E-2,-5.3759616E-2,4.780422E-2,-6.312938E-3,-4.3599986E-2,-1.831879E-2,-3.2961845E-2,4.437173E-2],"categories":[],"categories_nodes":[],"categories_segments":[],"categories_sizes":[],"default_left":[0,0,0,0,0,0,0,0,0,0,0,0,0,0,0,0,0,0,0,0,0,0,0,0,0,0,0,0,0,0,0,0,0,0,0,0,0,0,0,0,0,0,0,0,0],"id":25,"left_children":[1,3,5,7,-1,9,11,13,15,17,19,21,23,25,27,29,31,33,35,37,39,41,43,-1,-1,-1,-1,-1,-1,-1,-1,-1,-1,-1,-1,-1,-1,-1,-1,-1,-1,-1,-1,-1,-1],"loss_changes":[2.1409748E0,1.703377E0,2.1803515E0,1.7692189E0,0E0,2.6337495E0,2.1741004E0,4.3482814E0,1.4290495E0,2.0553255E0,1.9082887E0,2.029474E0,2.2506623E0,5.734167E-1,6.9120264E-1,9.633476E-1,6.4420724E-1,2.1782799E0,4.0988755E-1,1.0960767E0,2.1572921E0,4.2047977E-1,2.8999755E0,0E0,0E0,0E0,0E0,0E0,0E0,0E0,0E0,0E0,0E0,0E0,0E0,0E0,0E0,0E0,0E0,0E0,0E0,0E0,0E0,0E0,0E0],"parents":[2147483647,0,0,1,1,2,2,3,3,5,5,6,6,7,7,8,8,9,9,10,10,11,11,12,12,13,13,14,14,15,15,16,16,17,17,18,18,19,19,20,20,21,21,22,22],"right_children":[2,4,6,8,-1,10,12,14,16,18,20,22,24,26,28,30,32,34,36,38,40,42,44,-1,-1,-1,-1,-1,-1,-1,-1,-1,-1,-1,-1,-1,-1,-1,-1,-1,-1,-1,-1,-1,-1],"split_conditions":[1.6848544E2,4.506242E2,2.368468E2,2.6601315E-1,-5.8530923E-2,7.840314E-1,9.364631E-1,2.1349913E-1,1.5802338E2,4.744652E2,1.940199E2,4.0770023E2,2.4688779E2,3.4038287E2,1.6041096E2,1.564209E2,2.9084393E2,3.9906073E2,1.8969232E2,3.5568073E2,2.0203078E2,3.0067966E2,4.786629E-1,8.8491276E-2,-4.1483313E-2,-3.7573274E-2,3.0598347E-3,1.0109623E-1,2.4840714E-2,-1.1413948E-2,3.4130108E-2,-2.0425621E-2,-5.4002434E-2,1.5436533E-2,-1.0903411E-2,7.350236E-2,3.0118188E-2,-1.2106577E-2,-5.3759616E-2,4.780422E-2,-6.312938E-3,-4.3599986E-2,-1.831879E-2,-3.2961845E-2,4.437173E-2],"split_indices":[0,3,0,2,0,2,2,2,0,3,0,3,0,3,0,0,3,3,0,3,0,3,2,0,0,0,0,0,0,0,0,0,0,0,0,0,0,0,0,0,0,0,0,0,0],"split_type":[0,0,0,0,0,0,0,0,0,0,0,0,0,0,0,0,0,0,0,0,0,0,0,0,0,0,0,0,0,0,0,0,0,0,0,0,0,0,0,0,0,0,0,0,0],"sum_hessian":[4.2805E2,7.583272E1,3.5221725E2,6.908273E1,6.749981E0,2.9793738E2,5.427988E1,1.9134209E1,4.9948524E1,2.2391737E2,7.402001E1,5.0066727E1,4.213155E0,1.2636176E1,6.4980326E0,2.3104876E1,2.6843649E1,2.1149294E2,1.2424442E1,2.6567242E1,4.745277E1,3.261319E1,1.7453539E1,2.9165542E0,1.2966003E0,6.170565E0,6.4656115E0,3.803185E0,2.6948478E0,1.79531E1,5.1517763E0,1.726407E1,9.579577E0,1.7398526E2,3.7507675E1,4.8450375E0,7.579405E0,1.6417318E1,1.0149924E1,8.01328E0,3.943949E1,1.9477545E1,1.3135644E1,8.395827E0,9.057711E0],"tree_param":{"num_deleted":"0","num_feature":"4","num_nodes":"45","size_leaf_vector":"1"}},{"base_weights":[-7.416926E-3,2.2801352E-1,-3.038826E-1,3.1652022E-2,4.3557337E-1,-4.5559347E-1,-1.2483517E-1,-7.0950635E-2,3.779499E-1,2.463311E-1,6.7111117E-1,-6.2406976E-2,-3.6565542E-1,1.7913975E-1,-3.4675345E-1,8.585326E-2,-2.2774795E-1,4.9884793E-1,-5.3452548E-2,4.5769778E-1,9.0371214E-2,7.5801885E-1,2.7321416E-1,-1.1815517E-1,-4.8937485E-1,-4.7676496E-2,2.3891835E-1,-4.0510836E-1,3.1339547E-1,1.7552901E-2,-5.2052617E-2,-2.5746195E-2,4.328934E-2,8.4681146E-2,3.8797818E-2,3.1931937E-2,9.276666E-2,-4.416938E-2,1.4905279E-2,7.892145E-2,2.7155949E-2,-5.0642338E-2,4.6143357E-2,-5.4304596E-2,-3.6967534E-4,-5.2314986E-2,-8.084011E-3,1.4850447E-2,5.5141427E-2,-1.074812E-2,-4.773693E-2,-9.515521E-3,5.993094E-2],"categories":[],"categories_nodes":[],"categories_segments":[],"categories_sizes":[],"default_left":[0,0,0,0,0,0,0,0,0,0,0,0,0,0,0,0,0,0,0,0,0,0,0,0,0,0,0,0,0,0,0,0,0,0,0,0,0,0,0,0,0,0,0,0,0,0,0,0,0,0,0,0,0],"id":26,"left_children":[1,3,5,7,9,11,13,15,17,19,21,-1,23,25,27,29,31,33,-1,35,37,39,41,43,45,-1,47,49,51,-1,-1,-1,-1,-1,-1,-1,-1,-1,-1,-1,-1,-1,-1,-1,-1,-1,-1,-1,-1,-1,-1,-1,-1],"loss_changes":[2.7946115E1,9.082557E0,4.7568207E0,4.1400785E0,4.667404E0,1.2196503E0,5.638191E0,2.2359545E0,3.2030342E0,1.9925127E0,1.4431477E0,0E0,1.9236746E0,1.5074255E0,1.9806728E0,2.5818017E0,1.0016551E0,5.981531E-1,0E0,1.3913994E0,1.213214E0,3.7151146E-1,1.7184851E0,1.1109488E0,5.4863167E-1,0E0,8.57226E-1,9.089227E-1,5.794003E-1,0E0,0E0,0E0,0E0,0E0,0E0,0E0,0E0,0E0,0E0,0E0,0E0,0E0,0E0,0E0,0E0,0E0,0E0,0E0,0E0,0E0,0E0,0E0,0E0],"parents":[2147483647,0,0,1,1,2,2,3,3,4,4,5,5,6,6,7,7,8,8,9,9,10,10,12,12,13,13,14,14,15,15,16,16,17,17,19,19,20,20,21,21,22,22,23,23,24,24,26,26,27,27,28,28],"right_children":[2,4,6,8,10,12,14,16,18,20,22,-1,24,26,28,30,32,34,-1,36,38,40,42,44,46,-1,48,50,52,-1,-1,-1,-1,-1,-1,-1,-1,-1,-1,-1,-1,-1,-1,-1,-1,-1,-1,-1,-1,-1,-1,-1,-1],"split_conditions":[1.9964612E2,5.436613E-1,3.1344678E2,4.0254242E2,3.0970187E2,4.177926E-1,2.237357E2,1.7375433E2,4.7971246E2,1.7058412E2,1.8910815E2,-6.2406976E-2,2.13743E2,2.4573071E-1,4.8804675E2,3.8444873E2,1.9951465E2,4.210625E2,-5.3452548E-2,1.6483432E2,1.7207697E2,4.789712E2,1.9007631E2,1.5150177E2,9.7003555E-1,-4.7676496E-2,8.8119966E-1,2.297559E2,2.3511366E2,1.7552901E-2,-5.2052617E-2,-2.5746195E-2,4.328934E-2,8.4681146E-2,3.8797818E-2,3.1931937E-2,9.276666E-2,-4.416938E-2,1.4905279E-2,7.892145E-2,2.7155949E-2,-5.0642338E-2,4.6143357E-2,-5.4304596E-2,-3.6967534E-4,-5.2314986E-2,-8.084011E-3,1.4850447E-2,5.5141427E-2,-1.074812E-2,-4.773693E-2,-9.515521E-3,5.993094E-2],"split_indices":[0,2,3,3,3,2,0,0,3,0,0,0,0,2,3,3,0,3,0,0,0,3,0,3,2,0,2,0,0,0,0,0,0,0,0,0,0,0,0,0,0,0,0,0,0,0,0,0,0,0,0,0,0],"split_type":[0,0,0,0,0,0,0,0,0,0,0,0,0,0,0,0,0,0,0,0,0,0,0,0,0,0,0,0,0,0,0,0,0,0,0,0,0,0,0,0,0,0,0,0,0,0,0,0,0,0,0,0,0],"sum_hessian":[3.9839838E2,2.2218605E2,1.7621233E2,1.147652E2,1.07420845E2,9.455189E1,8.1660446E1,8.914735E1,2.5617851E1,6.069856E1,4.6722286E1,3.0840696E1,6.371119E1,3.4540707E1,4.7119736E1,4.479896E1,4.4348385E1,2.3020996E1,2.5968542E0,2.4950012E1,3.5748547E1,3.7603878E1,9.118407E0,2.1885118E1,4.182607E1,2.302427E0,3.223828E1,4.3647762E1,3.471975E0,3.964631E1,5.152652E0,4.302358E1,1.3248074E0,3.9587164E0,1.906228E1,2.0572159E1,4.377853E0,2.902715E0,3.2845833E1,3.4752884E1,2.8509946E0,1.4444875E0,7.6739197E0,3.8497295E0,1.8035389E1,3.8373085E1,3.4529874E0,2.6148113E1,6.0901666E0,9.012917E0,3.4634846E1,1.704111E0,1.7678641E0],"tree_param":{"num_deleted":"0","num_feature":"4","num_nodes":"53","size_leaf_vector":"1"}},{"base_weights":[-6.8225716E-3,-2.3178498E-1,3.554419E-1,-3.1384245E-2,-4.731132E-1,5.815734E-1,2.0029923E-1,-2.0124255E-1,2.1929368E-1,-1.9116686E-1,-5.084334E-1,6.781973E-1,4.3683258E-1,3.4918133E-3,3.4565094E-1,-3.8824514E-2,-4.652072E-1,7.864896E-1,8.881105E-2,-3.374723E-1,5.037871E-2,-2.5863534E-1,-5.5070484E-1,2.0090094E-1,7.309612E-1,-1.5929364E-1,5.205059E-1,3.6727017E-1,-7.533052E-2,5.9331125E-1,9.031224E-2,-4.9827855E-2,6.664656E-3,-3.6179345E-2,-6.1243672E-2,3.0977918E-2,9.355136E-2,4.15973E-2,-1.6541965E-3,-4.5254044E-2,1.6268201E-2,-5.4161888E-2,-4.716256E-3,-5.611542E-2,-3.178195E-4,-1.0007256E-2,5.3991493E-2,8.834974E-2,5.8955695E-2,9.221808E-3,-4.110616E-2,5.8729023E-2,1.0737594E-3,6.302314E-2,1.9509325E-2,-1.6110841E-2,2.7952626E-2,6.768864E-2,-5.1957425E-2,-2.4942046E-3,7.952363E-2],"categories":[],"categories_nodes":[],"categories_segments":[],"categories_sizes":[],"default_left":[0,0,0,0,0,0,0,0,0,0,0,0,0,0,0,0,0,0,0,0,0,0,0,0,0,0,0,0,0,0,0,0,0,0,0,0,0,0,0,0,0,0,0,0,0,0,0,0,0,0,0,0,0,0,0,0,0,0,0,0,0],"id":27,"left_children":[1,3,5,7,9,11,13,15,17,19,21,23,25,27,29,31,33,35,37,39,-1,41,43,45,47,49,51,53,55,57,59,-1,-1,-1,-1,-1,-1,-1,-1,-1,-1,-1,-1,-1,-1,-1,-1,-1,-1,-1,-1,-1,-1,-1,-1,-1,-1,-1,-1,-1,-1],"loss_changes":[3.306599E1,1.2089497E1,5.3368587E0,5.911961E0,1.0328484E0,5.809803E-1,2.679706E0,3.5261166E0,4.08506E0,1.6174148E0,9.160423E-1,7.5486374E-1,1.4755702E0,1.1981946E0,3.3546185E0,2.566111E0,2.5648832E-1,4.4705963E-1,1.6188608E0,7.8488064E-1,0E0,9.554945E-1,4.8365593E-1,5.584024E-1,1.6636467E-1,3.040042E-1,8.352051E-1,2.139064E-1,1.0915818E0,2.87965E0,2.2716293E0,0E0,0E0,0E0,0E0,0E0,0E0,0E0,0E0,0E0,0E0,0E0,0E0,0E0,0E0,0E0,0E0,0E0,0E0,0E0,0E0,0E0,0E0,0E0,0E0,0E0,0E0,0E0,0E0,0E0,0E0],"parents":[2147483647,0,0,1,1,2,2,3,3,4,4,5,5,6,6,7,7,8,8,9,9,10,10,11,11,12,12,13,13,14,14,15,15,16,16,17,17,18,18,19,19,21,21,22,22,23,23,24,24,25,25,26,26,27,27,28,28,29,29,30,30],"right_children":[2,4,6,8,10,12,14,16,18,20,22,24,26,28,30,32,34,36,38,40,-1,42,44,46,48,50,52,54,56,58,60,-1,-1,-1,-1,-1,-1,-1,-1,-1,-1,-1,-1,-1,-1,-1,-1,-1,-1,-1,-1,-1,-1,-1,-1,-1,-1,-1,-1,-1,-1],"split_conditions":[2.1635374E2,3.001438E0,2.5353556E0,1.8969232E2,1.7870185E-1,2.3670723E2,2.3098744E2,6.138163E-1,2.5145072E-1,2.0270415E2,3.2921689E0,1.1925714E0,2.3779744E2,2.1936823E2,6.122858E-1,1.5712567E2,8.393241E-1,1.4439579E0,1.4974736E0,1.7330249E-1,5.037871E-2,1.7954448E2,9.812364E-1,2.2869034E2,2.2464914E2,5.845268E-1,8.344511E-1,2.8521493E-1,4.5267625E0,4.823675E0,2.4688779E2,-4.9827855E-2,6.664656E-3,-3.6179345E-2,-6.1243672E-2,3.0977918E-2,9.355136E-2,4.15973E-2,-1.6541965E-3,-4.5254044E-2,1.6268201E-2,-5.4161888E-2,-4.716256E-3,-5.611542E-2,-3.178195E-4,-1.0007256E-2,5.3991493E-2,8.834974E-2,5.8955695E-2,9.221808E-3,-4.110616E-2,5.8729023E-2,1.0737594E-3,6.302314E-2,1.9509325E-2,-1.6110841E-2,2.7952626E-2,6.768864E-2,-5.1957425E-2,-2.4942046E-3,7.952363E-2],"split_indices":[0,1,1,0,2,0,0,2,2,0,1,1,0,0,2,0,2,1,1,2,0,0,2,0,0,2,2,2,1,1,0,0,0,0,0,0,0,0,0,0,0,0,0,0,0,0,0,0,0,0,0,0,0,0,0,0,0,0,0,0,0],"split_type":[0,0,0,0,0,0,0,0,0,0,0,0,0,0,0,0,0,0,0,0,0,0,0,0,0,0,0,0,0,0,0,0,0,0,0,0,0,0,0,0,0,0,0,0,0,0,0,0,0,0,0,0,0,0,0,0,0,0,0,0,0],"sum_hessian":[4.0372726E2,2.4928444E2,1.5444284E2,1.3680806E2,1.1247638E2,6.172524E1,9.27176E1,8.1667625E1,5.5140434E1,1.3235486E1,9.924089E1,3.4805035E1,2.6920206E1,3.982213E1,5.289547E1,5.1268864E1,3.0398766E1,9.3723135E0,4.576812E1,1.1358607E1,1.8768786E0,1.5393453E1,8.384744E1,3.9431627E0,3.086187E1,3.202243E0,2.3717962E1,6.440173E0,3.3381958E1,2.617955E1,2.671592E1,8.87653E0,4.2392334E1,1.98873E1,1.0511463E1,2.9653199E0,6.406994E0,1.0430136E1,3.5337982E1,9.311543E0,2.0470643E0,5.915891E0,9.477561E0,8.2252785E1,1.594659E0,2.4621243E0,1.4810383E0,1.2321907E1,1.8539965E1,1.9189571E0,1.283286E0,2.0836163E1,2.8818007E0,1.495605E0,4.944568E0,2.7323229E1,6.0587273E0,2.4715263E1,1.4642857E0,2.3790771E1,2.925147E0],"tree_param":{"num_deleted":"0","num_feature":"4",